{"learner":{"attributes":{"scikit_learn":"{\"_estimator_type\": \"regressor\"}"},"feature_names":[],"feature_types":[],"gradient_booster":{"model":{"gbtree_model_param":{"num_parallel_tree":"1","num_trees":"68"},"iteration_indptr":[0,1,2,3,4,5,6,7,8,9,10,11,12,13,14,15,16,17,18,19,20,21,22,23,24,25,26,27,28,29,30,31,32,33,34,35,36,37,38,39,40,41,42,43,44,45,46,47,48,49,50,51,52,53,54,55,56,57,58,59,60,61,62,63,64,65,66,67,68],"tree_info":[0,0,0,0,0,0,0,0,0,0,0,0,0,0,0,0,0,0,0,0,0,0,0,0,0,0,0,0,0,0,0,0,0,0,0,0,0,0,0,0,0,0,0,0,0,0,0,0,0,0,0,0,0,0,0,0,0,0,0,0,0,0,0,0,0,0,0,0],"trees":[{"base_weights":[-1.2090774E-3,-2.0355734E4,3.0960215E4,-3.0298256E4,-1.1225877E4,4.608664E4,8.808384E3,-2.171325E4,-9.944246E3,-4.6238247E3,-1.8163072E4,9.369115E3,4.835477E4,-2.6077266E3,1.0787516E4,3.5098433E3,-2.301008E4,-9.152995E3,3.3929624E3,-1.870705E4,-5.1906494E3,1.4538672E3,1.224444E4,4.344461E4,1.8449646E4,-4.4505103E3,1.1236654E3,8.724763E3,1.7415355E4,-7.1824385E3,-3.884589E3,-1.2779227E4,-2.4286582E3,7.9973135E3,-3.6127266E3,-2.0160717E4,-1.4356083E4,-2.096494E2,-1.9122155E3,5.4492285E2,1.0166724E2,4.58185E3,1.4687822E3,8.554927E3,1.3603609E4,3.9801102E2,-5.3424243E3,1.008865E4,5.4516885E3,1.5181975E3,5.688281E3,-1.9630727E2,-3.9102363E3,-6.5336743E3,1.0982207E3,5.068506E2,9.686893E3,1.0172005E3,-4.7546216E3,-6.1234297E3,-1.9418646E3,-1.9251671E3,-4.57326E3,-6.202171E3,1.0018478E2,1.9070133E3,1.1239896E4,8.4944147E2,1.9916024E3,-6.5706573E2,-2.2543772E3,2.5631672E3,-8.793594E2,3.9667682E2,-6.408166E1,1.027865E4,3.833347E2,8.4141486E2,-3.890271E2,-1.7354745E3,-8.0199896E2,-2.0305256E3,-3.4455328E2,3.4210037E3,6.931689E2,1.2621223E3,-1.6291234E2,2.4865953E1,-4.594044E2,3.2255103E3,5.4492285E2],"categories":[],"categories_nodes":[],"categories_segments":[],"categories_sizes":[],"default_left":[0,0,0,0,0,0,0,0,0,0,0,0,0,0,0,0,0,0,0,0,0,0,0,0,0,0,0,0,0,0,0,0,0,0,0,0,0,0,0,0,0,0,0,0,0,0,0,0,0,0,0,0,0,0,0,0,0,0,0,0,0,0,0,0,0,0,0,0,0,0,0,0,0,0,0,0,0,0,0,0,0,0,0,0,0,0,0,0,0,0,0],"id":0,"left_children":[1,3,5,7,9,11,13,15,-1,17,19,21,23,25,27,-1,29,31,33,35,37,39,41,43,-1,45,-1,47,49,-1,-1,51,53,55,57,59,61,-1,-1,-1,-1,-1,-1,-1,-1,-1,63,65,67,-1,-1,-1,-1,69,71,73,75,77,79,-1,-1,-1,-1,81,-1,-1,83,-1,-1,-1,-1,85,87,-1,-1,89,-1,-1,-1,-1,-1,-1,-1,-1,-1,-1,-1,-1,-1,-1,-1],"loss_changes":[2.6532174E11,2.2716416E10,5.5552066E10,2.638889E9,6.0531784E9,7.791706E9,1.5871165E9,1.8387558E9,0E0,2.572713E9,3.615867E8,1.4151066E8,3.631022E9,1.4655005E8,6.5467955E8,0E0,1.0383565E8,1.06624384E9,8.6756506E8,1.0271334E8,1.8015448E7,6.497275E5,4.042592E7,1.2365742E9,0E0,5.367269E7,0E0,1.5481293E8,1.8465203E8,0E0,0E0,1.350272E8,2.5329965E8,1.9758189E8,6.299221E7,1.5951872E8,5.947213E7,0E0,0E0,0E0,0E0,0E0,0E0,0E0,0E0,0E0,4.1164816E7,6.2419456E7,3.3132544E7,0E0,0E0,0E0,0E0,2.0101728E7,3.1224436E7,2.6925052E6,5.128448E7,1.6446477E7,4.43528E6,0E0,0E0,0E0,0E0,1.4844192E7,0E0,0E0,3.411405E7,0E0,0E0,0E0,0E0,3.396988E7,3.3572725E6,0E0,0E0,4.080525E7,0E0,0E0,0E0,0E0,0E0,0E0,0E0,0E0,0E0,0E0,0E0,0E0,0E0,0E0,0E0],"parents":[2147483647,0,0,1,1,2,2,3,3,4,4,5,5,6,6,7,7,9,9,10,10,11,11,12,12,13,13,14,14,16,16,17,17,18,18,19,19,20,20,21,21,22,22,23,23,25,25,27,27,28,28,31,31,32,32,33,33,34,34,35,35,36,36,46,46,47,47,48,48,53,53,54,54,55,55,56,56,57,57,58,58,63,63,66,66,71,71,72,72,75,75],"right_children":[2,4,6,8,10,12,14,16,-1,18,20,22,24,26,28,-1,30,32,34,36,38,40,42,44,-1,46,-1,48,50,-1,-1,52,54,56,58,60,62,-1,-1,-1,-1,-1,-1,-1,-1,-1,64,66,68,-1,-1,-1,-1,70,72,74,76,78,80,-1,-1,-1,-1,82,-1,-1,84,-1,-1,-1,-1,86,88,-1,-1,90,-1,-1,-1,-1,-1,-1,-1,-1,-1,-1,-1,-1,-1,-1,-1],"split_conditions":[6.584938E-1,-3.5962024E-1,1E0,1E0,1E0,1E0,1E0,-1.3777343E0,-9.944246E3,1.4943679E-1,1.7012234E0,3.8471943E-1,2.196006E0,1.1675508E0,3.8471943E-1,3.5098433E3,7.14466E-1,1E0,2.2040959E-1,1.4943679E-1,1.7049881E0,2.2874525E-1,2.4485786E-2,3.8471943E-1,1.8449646E4,-4.2391002E-1,1.1236654E3,9.3557036E-1,-9.005233E-1,-7.1824385E3,-3.884589E3,-9.737456E-1,3.8471943E-1,3.8471943E-1,1E0,2.196006E0,-4.2333084E-1,-2.096494E2,-1.9122155E3,5.4492285E2,1.0166724E2,4.58185E3,1.4687822E3,8.554927E3,1.3603609E4,3.9801102E2,1.4946455E0,-4.3195084E-1,1.1675508E0,1.5181975E3,5.688281E3,-1.9630727E2,-3.9102363E3,2.2874525E-1,1E0,-8.400181E-1,2.196006E0,3.8471943E-1,3.8471943E-1,-6.1234297E3,-1.9418646E3,-1.9251671E3,-4.57326E3,-2.7132884E-1,1.0018478E2,1.9070133E3,7.391108E-1,8.4944147E2,1.9916024E3,-6.5706573E2,-2.2543772E3,-5.777369E-1,2.2874525E-1,3.9667682E2,-6.408166E1,-5.2753955E-1,3.833347E2,8.4141486E2,-3.890271E2,-1.7354745E3,-8.0199896E2,-2.0305256E3,-3.4455328E2,3.4210037E3,6.931689E2,1.2621223E3,-1.6291234E2,2.4865953E1,-4.594044E2,3.2255103E3,5.4492285E2],"split_indices":[0,0,12,12,12,8,8,0,0,0,3,1,1,0,1,0,5,8,4,0,3,2,7,1,0,6,0,4,4,0,0,1,1,1,14,1,6,0,0,0,0,0,0,0,0,0,4,7,0,0,0,0,0,2,14,3,1,1,1,0,0,0,0,5,0,0,5,0,0,0,0,3,2,0,0,3,0,0,0,0,0,0,0,0,0,0,0,0,0,0,0],"split_type":[0,0,0,0,0,0,0,0,0,0,0,0,0,0,0,0,0,0,0,0,0,0,0,0,0,0,0,0,0,0,0,0,0,0,0,0,0,0,0,0,0,0,0,0,0,0,0,0,0,0,0,0,0,0,0,0,0,0,0,0,0,0,0,0,0,0,0,0,0,0,0,0,0,0,0,0,0,0,0,0,0,0,0,0,0,0,0,0,0,0,0],"sum_hessian":[4.19E2,2.53E2,1.66E2,1.2E2,1.33E2,9.8E1,6.8E1,3.5E1,8.5E1,6.9E1,6.4E1,6E0,9.2E1,1E1,5.8E1,1E0,3.4E1,4.4E1,2.5E1,6.1E1,3E0,2E0,4E0,7.1E1,2.1E1,8E0,2E0,4.6E1,1.2E1,2.9E1,5E0,2.8E1,1.6E1,1.5E1,1E1,4.3E1,1.8E1,1E0,2E0,1E0,1E0,2E0,2E0,1.2E1,5.9E1,1E0,7E0,3.1E1,1.5E1,2E0,1E1,1E0,2.7E1,7E0,9E0,3E0,1.2E1,2E0,8E0,4.1E1,2E0,3E0,1.5E1,6E0,1E0,9E0,2.2E1,6E0,9E0,2E0,5E0,5E0,4E0,1E0,2E0,1.1E1,1E0,1E0,1E0,4E0,4E0,5E0,1E0,2.1E1,1E0,3E0,2E0,2E0,2E0,1E1,1E0],"tree_param":{"num_deleted":"0","num_feature":"16","num_nodes":"91","size_leaf_vector":"1"}},{"base_weights":[5.8289536E1,-1.4470574E4,2.2155734E4,-2.1459703E4,-8.0515054E3,3.2900152E4,6.418732E3,-1.5485366E4,-2.3711059E4,-3.3093545E3,-1.3034567E4,7.5479927E3,3.4454613E4,-1.9030294E3,7.8614546E3,2.989523E3,-1.6503975E4,-7.844512E3,-1.9545297E4,-6.5803877E3,2.4793323E3,-1.4471302E4,-9.335157E3,1.2383373E3,9.8241875E3,3.0871387E4,4.461542E4,-3.3395107E3,9.015605E2,6.326498E3,1.2806185E4,-1.677087E4,-1.10141E3,-5.912623E3,-7.219512E2,-9.131891E3,-1.8407422E3,5.9065703E3,-2.7311353E3,-1.6052157E4,-3.2386707E3,-3.045787E3,-4.280329E3,4.6414035E2,8.659537E1,3.6761946E3,1.1784609E3,2.095696E4,3.2504988E4,1.3494809E4,3.8138003E3,3.390074E2,-4.0427983E3,5.4884546E3,3.0631348E3,1.2181082E3,4.155072E3,-5.290935E3,-1.0078038E4,-1.6720529E2,-9.417748E3,-4.960421E3,8.39075E2,4.3972266E2,7.1343257E3,8.6640497E2,-3.626856E3,-1.3639774E3,-4.831886E3,-1.4970693E3,-1.7856985E2,6.4318916E3,1.7968715E3,4.0663271E3,9.75947E3,-4.702572E3,8.5332954E1,3.0389807E3,6.3972373E3,-8.0640045E2,-3.2172676E3,-1.5213507E3,-2.9407205E3,-7.989812E2,-1.9427241E3,1.9864115E3,-7.0554376E2,3.3787122E2,-5.1415115E1,7.545314E3,3.2650665E2,7.166786E2,-3.3135535E2,-4.990795E2,-1.2802811E3,-1.6398789E3,-5.201771E2,9.8688806E2,2.8588934E2,-3.6249164E2,6.713039E3,9.814657E2,-1.3071053E2,1.9950672E1,-3.685975E2,2.3561116E3,4.6414035E2,2.2179822E3,1.1440662E3],"categories":[],"categories_nodes":[],"categories_segments":[],"categories_sizes":[],"default_left":[0,0,0,0,0,0,0,0,0,0,0,0,0,0,0,0,0,0,0,0,0,0,0,0,0,0,0,0,0,0,0,0,0,0,0,0,0,0,0,0,0,0,0,0,0,0,0,0,0,0,0,0,0,0,0,0,0,0,0,0,0,0,0,0,0,0,0,0,0,0,0,0,0,0,0,0,0,0,0,0,0,0,0,0,0,0,0,0,0,0,0,0,0,0,0,0,0,0,0,0,0,0,0,0,0,0,0,0,0],"id":1,"left_children":[1,3,5,7,9,11,13,15,17,19,21,23,25,27,29,-1,31,-1,33,35,37,39,41,43,45,47,49,51,-1,53,55,57,-1,-1,-1,59,61,63,65,67,-1,-1,69,-1,-1,-1,-1,71,73,-1,-1,-1,75,77,-1,-1,-1,-1,79,-1,81,83,85,87,89,91,93,-1,-1,-1,-1,-1,-1,-1,-1,95,-1,97,99,-1,-1,-1,-1,-1,-1,101,103,-1,-1,105,-1,-1,-1,-1,-1,-1,-1,-1,-1,-1,107,-1,-1,-1,-1,-1,-1,-1,-1],"loss_changes":[1.3516192E11,1.1222602E10,2.8026003E10,1.2603187E9,3.1233413E9,3.641426E9,8.433741E8,1.103998E9,4.6689485E8,1.3417641E9,2.1038797E8,8.836842E7,2.0086538E9,8.827288E7,3.667886E8,0E0,5.716685E7,0E0,2.0932813E8,5.2738547E8,4.8042698E8,7.705702E7,5.5555456E7,4.713695E5,2.6024E7,4.8492544E8,4.287283E7,3.2997456E7,0E0,1.010368E8,7.90057E7,6.4608256E7,0E0,0E0,0E0,6.571597E7,1.4628502E8,1.0425414E8,3.8588624E7,6.290944E6,0E0,0E0,1.110004E7,0E0,0E0,0E0,0E0,1.1124736E7,1.2460032E7,0E0,0E0,0E0,2.42112E7,7.182656E7,0E0,0E0,0E0,0E0,1.0306176E7,0E0,9.194752E6,1.1196992E7,1.9123476E7,1.913996E6,2.3924736E7,1.1931671E7,4.822728E6,0E0,0E0,0E0,0E0,0E0,0E0,0E0,0E0,7.391232E6,0E0,4.600592E6,7.799181E7,0E0,0E0,0E0,0E0,0E0,0E0,2.073936E7,2.161227E6,0E0,0E0,1.6357568E7,0E0,0E0,0E0,0E0,0E0,0E0,0E0,0E0,0E0,0E0,3.2491136E7,0E0,0E0,0E0,0E0,0E0,0E0,0E0,0E0],"parents":[2147483647,0,0,1,1,2,2,3,3,4,4,5,5,6,6,7,7,8,8,9,9,10,10,11,11,12,12,13,13,14,14,16,16,18,18,19,19,20,20,21,21,22,22,23,23,24,24,25,25,26,26,27,27,29,29,30,30,31,31,35,35,36,36,37,37,38,38,39,39,42,42,47,47,48,48,52,52,53,53,58,58,60,60,61,61,62,62,63,63,64,64,65,65,66,66,75,75,77,77,78,78,85,85,86,86,89,89,100,100],"right_children":[2,4,6,8,10,12,14,16,18,20,22,24,26,28,30,-1,32,-1,34,36,38,40,42,44,46,48,50,52,-1,54,56,58,-1,-1,-1,60,62,64,66,68,-1,-1,70,-1,-1,-1,-1,72,74,-1,-1,-1,76,78,-1,-1,-1,-1,80,-1,82,84,86,88,90,92,94,-1,-1,-1,-1,-1,-1,-1,-1,96,-1,98,100,-1,-1,-1,-1,-1,-1,102,104,-1,-1,106,-1,-1,-1,-1,-1,-1,-1,-1,-1,-1,108,-1,-1,-1,-1,-1,-1,-1,-1],"split_conditions":[6.584938E-1,-3.5962024E-1,1E0,1E0,1E0,1E0,1E0,-1.3777343E0,-8.6867726E-1,1.4943679E-1,1E0,3.8471943E-1,2.196006E0,1.1675508E0,3.8471943E-1,2.989523E3,3.745785E0,-7.844512E3,8.777344E-1,1E0,2.2040959E-1,1.4943679E-1,1.4943679E-1,2.2874525E-1,2.4485786E-2,3.8471943E-1,3.4225866E-2,-4.2391002E-1,9.015605E2,7.824398E-2,-9.005233E-1,1E0,-1.10141E3,-5.912623E3,-7.219512E2,-9.737456E-1,3.8471943E-1,3.8471943E-1,1E0,-9.690796E-1,-3.2386707E3,-3.045787E3,7.8597933E-1,4.6414035E2,8.659537E1,3.6761946E3,1.1784609E3,1.2431881E0,-4.2333084E-1,1.3494809E4,3.8138003E3,3.390074E2,1.4946455E0,1.1675508E0,3.0631348E3,1.2181082E3,4.155072E3,-5.290935E3,1E0,-1.6720529E2,1E0,-7.722649E-1,1E0,-8.400181E-1,2.196006E0,3.8471943E-1,-4.0885118E-1,-1.3639774E3,-4.831886E3,-1.4970693E3,-1.7856985E2,6.4318916E3,1.7968715E3,4.0663271E3,9.75947E3,-4.0248016E-1,8.5332954E1,1.7049881E0,-7.7476156E-1,-8.0640045E2,-3.2172676E3,-1.5213507E3,-2.9407205E3,-7.989812E2,-1.9427241E3,-5.777369E-1,2.2874525E-1,3.3787122E2,-5.1415115E1,-5.2753955E-1,3.2650665E2,7.166786E2,-3.3135535E2,-4.990795E2,-1.2802811E3,-1.6398789E3,-5.201771E2,9.8688806E2,2.8588934E2,-3.6249164E2,2.8846262E0,9.814657E2,-1.3071053E2,1.9950672E1,-3.685975E2,2.3561116E3,4.6414035E2,2.2179822E3,1.1440662E3],"split_indices":[0,0,12,12,12,8,8,0,0,0,8,1,1,0,1,0,5,0,7,8,4,0,0,2,7,1,6,6,0,6,4,8,0,0,0,1,1,1,14,4,0,0,2,0,0,0,0,4,6,0,0,0,4,0,0,0,0,0,14,0,14,4,14,3,1,1,6,0,0,0,0,0,0,0,0,6,0,3,3,0,0,0,0,0,0,3,2,0,0,3,0,0,0,0,0,0,0,0,0,0,3,0,0,0,0,0,0,0,0],"split_type":[0,0,0,0,0,0,0,0,0,0,0,0,0,0,0,0,0,0,0,0,0,0,0,0,0,0,0,0,0,0,0,0,0,0,0,0,0,0,0,0,0,0,0,0,0,0,0,0,0,0,0,0,0,0,0,0,0,0,0,0,0,0,0,0,0,0,0,0,0,0,0,0,0,0,0,0,0,0,0,0,0,0,0,0,0,0,0,0,0,0,0,0,0,0,0,0,0,0,0,0,0,0,0,0,0,0,0,0,0],"sum_hessian":[4.19E2,2.53E2,1.66E2,1.2E2,1.33E2,9.8E1,6.8E1,3.5E1,8.5E1,6.9E1,6.4E1,6E0,9.2E1,1E1,5.8E1,1E0,3.4E1,4.8E1,3.7E1,4.4E1,2.5E1,4.4E1,2E1,2E0,4E0,7.1E1,2.1E1,8E0,2E0,4.6E1,1.2E1,3.3E1,1E0,3.6E1,1E0,2.8E1,1.6E1,1.5E1,1E1,2.8E1,1.6E1,1.6E1,4E0,1E0,1E0,2E0,2E0,1.2E1,5.9E1,2E1,1E0,1E0,7E0,4E1,6E0,2E0,1E1,2.7E1,6E0,1E0,2.7E1,7E0,9E0,3E0,1.2E1,2E0,8E0,1E0,2.7E1,3E0,1E0,1.1E1,1E0,2E0,5.7E1,6E0,1E0,1.2E1,2.8E1,1E0,5E0,4E0,2.3E1,4E0,3E0,5E0,4E0,1E0,2E0,1.1E1,1E0,1E0,1E0,3E0,5E0,4E0,2E0,1E1,2E0,1E0,2.7E1,3E0,2E0,2E0,2E0,1E1,1E0,2E1,7E0],"tree_param":{"num_deleted":"0","num_feature":"16","num_nodes":"109","size_leaf_vector":"1"}},{"base_weights":[7.8511055E1,-1.0341153E4,1.5925914E4,-1.527811E4,-5.8059824E3,2.3597725E4,4.687724E3,-1.64135E4,-8.31899E3,-2.3971538E3,-9.387706E3,6.082272E3,2.4662352E4,-1.4146285E3,5.7459976E3,-5.6949805E3,-1.3522169E4,2.546338E3,-9.735403E3,-4.7819976E3,1.8226588E3,-9.676377E3,-2.566372E3,1.0547592E3,7.882325E3,2.8779014E4,1.9830566E4,-2.54223E3,7.233572E2,4.606817E3,9.422575E3,-1.8300547E3,-1.4146183E4,-6.149245E2,-1.0064074E4,-6.5839893E3,-1.4267178E3,4.3698936E3,-2.0481064E3,-1.0529582E4,-7.1912515E3,-1.5209752E2,-9.1314685E2,3.9533334E2,7.375819E1,2.949553E3,9.455247E2,7.5124355E3,1.0276608E4,2.8659854E3,6.0983794E3,2.8875082E2,-3.1034814E3,3.9653757E3,2.2846821E3,9.77335E2,1.0236772E4,-4.2425215E3,-9.381304E2,-6.868545E2,-3.084556E3,-1.4241753E2,-6.784822E3,-3.8324097E3,6.4050745E2,1.8640564E3,6.642724E3,7.3796356E2,-2.7492292E3,-3.4115767E3,-2.4018447E3,-1.4797634E3,-9.081536E3,-1.3669305E3,-1.2772946E3,-3.087536E2,4.116578E3,7.1639136E2,1.0777204E4,-5.9196685E3,-2.8405698E3,-3.6926154E2,-1.3304078E3,1.5392494E3,-5.6608435E2,3.809619E2,7.537154E2,2.1379216E3,3.9533334E2,6.1043365E2,-2.8223322E2,-3.5969968E3,-4.0074326E2,-2.9619514E3,-1.1665896E3,-5.0972598E2,7.268282E1,2.235854E3,4.8427505E3,3.3615474E3,8.498128E2,-5.1489435E2,-1.7866713E3,7.6321826E2,-1.0487402E2,1.600748E1,-2.9574002E2,2.8778317E2,-4.1252544E1,-3.0978207E2,-1.1782102E3,7.208844E2,2.2937982E2,1.5916835E3,8.4726044E2],"categories":[],"categories_nodes":[],"categories_segments":[],"categories_sizes":[],"default_left":[0,0,0,0,0,0,0,0,0,0,0,0,0,0,0,0,0,0,0,0,0,0,0,0,0,0,0,0,0,0,0,0,0,0,0,0,0,0,0,0,0,0,0,0,0,0,0,0,0,0,0,0,0,0,0,0,0,0,0,0,0,0,0,0,0,0,0,0,0,0,0,0,0,0,0,0,0,0,0,0,0,0,0,0,0,0,0,0,0,0,0,0,0,0,0,0,0,0,0,0,0,0,0,0,0,0,0,0,0,0,0,0,0,0,0],"id":2,"left_children":[1,3,5,7,9,11,13,15,17,19,21,23,25,27,29,-1,31,-1,33,35,37,39,41,43,45,47,49,51,-1,53,55,-1,57,-1,59,61,63,65,67,69,71,-1,-1,-1,-1,-1,-1,-1,-1,-1,-1,-1,73,75,-1,-1,77,-1,-1,-1,-1,-1,79,81,83,85,87,89,91,-1,-1,-1,93,-1,95,-1,97,-1,99,101,-1,-1,-1,103,105,107,-1,-1,-1,-1,-1,109,-1,-1,-1,-1,-1,111,113,-1,-1,-1,-1,-1,-1,-1,-1,-1,-1,-1,-1,-1,-1,-1,-1],"loss_changes":[6.951703E10,5.598341E9,1.4287663E10,8.195154E8,1.613567E9,1.696088E9,4.5372774E8,5.724508E8,5.386136E8,7.131675E8,1.031593E8,5.503456E7,1.279144E9,5.4010176E7,2.0370074E8,0E0,1.6034918E8,0E0,2.4452736E7,2.62685E8,2.6530349E8,5.573939E7,2.637424E6,3.4196875E5,1.6752896E7,9.331507E7,1.46176E8,2.07833E7,0E0,6.286867E7,3.1100032E7,0E0,4.237107E7,0E0,2.0604288E7,3.2289408E7,8.69975E7,7.874307E7,2.3515976E7,1.1180544E7,3.370131E7,0E0,0E0,0E0,0E0,0E0,0E0,0E0,0E0,0E0,0E0,0E0,1.6125744E7,3.532499E7,0E0,0E0,2.0451072E7,0E0,0E0,0E0,0E0,0E0,1.1011712E7,7.96216E6,1.1715492E7,8.082112E6,1.4511072E7,8.656244E6,5.801904E6,0E0,0E0,0E0,2.774336E6,0E0,3.7852335E6,0E0,4.3801536E7,0E0,1.1846784E7,2.1344E5,0E0,0E0,0E0,1.2664836E7,1.3912879E6,1.3617815E6,0E0,0E0,0E0,0E0,0E0,6.56816E5,0E0,0E0,0E0,0E0,0E0,1.835644E6,1.3875968E7,0E0,0E0,0E0,0E0,0E0,0E0,0E0,0E0,0E0,0E0,0E0,0E0,0E0,0E0,0E0,0E0],"parents":[2147483647,0,0,1,1,2,2,3,3,4,4,5,5,6,6,7,7,8,8,9,9,10,10,11,11,12,12,13,13,14,14,16,16,18,18,19,19,20,20,21,21,22,22,23,23,24,24,25,25,26,26,27,27,29,29,30,30,32,32,34,34,35,35,36,36,37,37,38,38,39,39,40,40,52,52,53,53,56,56,62,62,63,63,64,64,65,65,66,66,67,67,68,68,72,72,74,74,76,76,78,78,79,79,83,83,84,84,85,85,91,91,97,97,98,98],"right_children":[2,4,6,8,10,12,14,16,18,20,22,24,26,28,30,-1,32,-1,34,36,38,40,42,44,46,48,50,52,-1,54,56,-1,58,-1,60,62,64,66,68,70,72,-1,-1,-1,-1,-1,-1,-1,-1,-1,-1,-1,74,76,-1,-1,78,-1,-1,-1,-1,-1,80,82,84,86,88,90,92,-1,-1,-1,94,-1,96,-1,98,-1,100,102,-1,-1,-1,104,106,108,-1,-1,-1,-1,-1,110,-1,-1,-1,-1,-1,112,114,-1,-1,-1,-1,-1,-1,-1,-1,-1,-1,-1,-1,-1,-1,-1,-1],"split_conditions":[6.584938E-1,-3.5962024E-1,1E0,1E0,1E0,1E0,1E0,-8.6867726E-1,-1.3777343E0,1.4943679E-1,1.7012234E0,3.8471943E-1,1E0,1.1675508E0,3.8471943E-1,-5.6949805E3,1E0,2.546338E3,-5.209239E-1,1E0,2.2040959E-1,1E0,1.7049881E0,2.2874525E-1,2.4485786E-2,2.196006E0,1.1675508E0,-4.2391002E-1,7.233572E2,7.824398E-2,-9.005233E-1,-1.8300547E3,3.745785E0,-6.149245E2,1E0,-9.737456E-1,3.8471943E-1,-4.244892E-1,1E0,1.4943679E-1,-3.206186E-1,-1.5209752E2,-9.1314685E2,3.9533334E2,7.375819E1,2.949553E3,9.455247E2,7.5124355E3,1.0276608E4,2.8659854E3,6.0983794E3,2.8875082E2,-4.1116792E-1,-7.7476156E-1,2.2846821E3,9.77335E2,1.1675508E0,-4.2425215E3,-9.381304E2,-6.868545E2,-3.084556E3,-1.4241753E2,3.168779E0,2.2874525E-1,1E0,3.8471943E-1,-5.777369E-1,3.8471943E-1,3.8471943E-1,-3.4115767E3,-2.4018447E3,-1.4797634E3,1.4943679E-1,-1.3669305E3,-5.1750004E-1,-3.087536E2,1.1675508E0,7.1639136E2,1.1549501E0,-4.244892E-1,-2.8405698E3,-3.6926154E2,-1.3304078E3,-5.777369E-1,2.2874525E-1,-8.400181E-1,7.537154E2,2.1379216E3,3.9533334E2,6.1043365E2,-2.8223322E2,-4.0885118E-1,-4.0074326E2,-2.9619514E3,-1.1665896E3,-5.0972598E2,7.268282E1,1.7049881E0,2.8846262E0,3.3615474E3,8.498128E2,-5.1489435E2,-1.7866713E3,7.6321826E2,-1.0487402E2,1.600748E1,-2.9574002E2,2.8778317E2,-4.1252544E1,-3.0978207E2,-1.1782102E3,7.208844E2,2.2937982E2,1.5916835E3,8.4726044E2],"split_indices":[0,0,12,8,12,8,8,0,0,0,3,1,14,0,1,0,14,0,1,8,4,8,3,2,7,1,0,6,0,6,4,0,5,0,14,1,1,6,14,0,5,0,0,0,0,0,0,0,0,0,0,0,6,3,0,0,0,0,0,0,0,0,6,2,14,1,3,1,1,0,0,0,0,0,3,0,0,0,6,6,0,0,0,3,2,3,0,0,0,0,0,6,0,0,0,0,0,3,3,0,0,0,0,0,0,0,0,0,0,0,0,0,0,0,0],"split_type":[0,0,0,0,0,0,0,0,0,0,0,0,0,0,0,0,0,0,0,0,0,0,0,0,0,0,0,0,0,0,0,0,0,0,0,0,0,0,0,0,0,0,0,0,0,0,0,0,0,0,0,0,0,0,0,0,0,0,0,0,0,0,0,0,0,0,0,0,0,0,0,0,0,0,0,0,0,0,0,0,0,0,0,0,0,0,0,0,0,0,0,0,0,0,0,0,0,0,0,0,0,0,0,0,0,0,0,0,0,0,0,0,0,0,0],"sum_hessian":[4.19E2,2.53E2,1.66E2,1.2E2,1.33E2,9.8E1,6.8E1,1.02E2,1.8E1,6.9E1,6.4E1,6E0,9.2E1,1E1,5.8E1,4.9E1,5.3E1,1E0,1.7E1,4.4E1,2.5E1,6.1E1,3E0,2E0,4E0,4.7E1,4.5E1,8E0,2E0,4.6E1,1.2E1,5E0,4.8E1,1E0,1.6E1,2.8E1,1.6E1,1.5E1,1E1,4.3E1,1.8E1,1E0,2E0,1E0,1E0,2E0,2E0,3.3E1,1.4E1,4E0,4.1E1,1E0,7E0,4E1,6E0,2E0,1E1,4.7E1,1E0,1E0,1.5E1,1E0,2.7E1,7E0,9E0,8E0,7E0,2E0,8E0,2.8E1,1.5E1,1E1,8E0,3E0,4E0,1E0,3.9E1,1E0,9E0,2.3E1,4E0,2E0,5E0,5E0,4E0,3E0,5E0,6E0,1E0,1E0,1E0,4E0,4E0,6E0,2E0,3E0,1E0,1.2E1,2.7E1,8E0,1E0,1E0,2.2E1,3E0,2E0,2E0,2E0,1E0,2E0,1E0,3E0,1E1,2E0,2E1,7E0],"tree_param":{"num_deleted":"0","num_feature":"16","num_nodes":"115","size_leaf_vector":"1"}},{"base_weights":[7.887709E1,-7.39975E3,1.1453083E4,-1.0868484E4,-4.212313E3,1.6915504E4,3.4497114E3,-1.1670384E4,-5.949318E3,-1.7525973E3,-6.7964326E3,1.4786754E4,2.3694002E4,-1.06719E3,4.233376E3,-1.3626787E4,-9.642781E3,2.1688533E3,-7.0926187E3,-3.5109646E3,1.3581385E3,-5.619133E3,-8.151467E3,7.5375386E3,1.5990588E4,7.6984795E3,3.9462778E3,-1.9568373E3,5.8037775E2,3.3550842E3,7.083094E3,-4.5098623E3,-3.2928503E3,-1.3778907E3,-1.0057681E4,-1.2672252E3,-8.145725E3,-4.8141143E3,-1.0814172E3,3.2950994E3,-1.5827262E3,-6.721707E3,-3.4804055E3,-1.024367E3,-2.5429675E3,6.2823883E1,8.130352E3,5.4366333E3,3.9696902E3,2.4594478E2,-2.4088208E3,4.817412E3,2.5190737E3,4.4061032E2,7.4256724E3,-3.0376562E3,-1.1164138E3,-5.850309E2,-2.5283318E3,-2.2070027E3,-5.265304E3,-2.9085903E3,4.884629E2,1.4225178E3,4.989866E3,6.285638E2,-2.1439644E3,-7.027609E3,-6.635067E2,-2.1577405E3,-5.6941875E3,2.970803E3,1.0321182E3,-1.0629677E3,-9.859953E2,2.6130452E3,1.7429961E3,1.5956938E3,2.86626E3,8.972061E2,2.3728215E3,-1.2130462E2,-7.367086E2,-3.9833708E3,-1.9029427E3,-4.078929E2,-1.2148816E3,1.1925983E3,-4.541922E2,6.144408E2,4.8816327E2,1.5945988E3,3.3672693E2,5.1993933E2,-2.4039308E2,-8.385133E2,-1.0310219E3,-2.3204365E3,-1.3791643E3,-1.0641669E3,1.2445977E3,-2.0811494E3,-7.3265265E2,-3.963786E2,6.190777E1,-2.6298206E2,3.3442122E3,3.1752908E2,7.821514E2,4.2460748E2,3.2038293E3,-1.4485509E3,-7.99334E2,5.935021E2,-8.414429E1,1.2843355E1,-2.3728397E2,2.7432578E2,-3.309824E1,-9.22652E1,-3.359796E2,5.7838416E2,-1.2954965E2,3.8009122E2,1.2022301E3,1.1128828E3,6.274549E2],"categories":[],"categories_nodes":[],"categories_segments":[],"categories_sizes":[],"default_left":[0,0,0,0,0,0,0,0,0,0,0,0,0,0,0,0,0,0,0,0,0,0,0,0,0,0,0,0,0,0,0,0,0,0,0,0,0,0,0,0,0,0,0,0,0,0,0,0,0,0,0,0,0,0,0,0,0,0,0,0,0,0,0,0,0,0,0,0,0,0,0,0,0,0,0,0,0,0,0,0,0,0,0,0,0,0,0,0,0,0,0,0,0,0,0,0,0,0,0,0,0,0,0,0,0,0,0,0,0,0,0,0,0,0,0,0,0,0,0,0,0,0,0,0,0,0,0],"id":3,"left_children":[1,3,5,7,9,11,13,15,17,19,21,23,25,27,29,31,33,-1,35,37,39,41,43,45,47,-1,-1,49,-1,51,53,-1,-1,-1,55,-1,57,59,61,63,65,67,69,-1,-1,-1,71,-1,-1,-1,73,75,77,-1,79,-1,-1,-1,-1,81,83,85,87,89,91,93,95,97,-1,99,101,-1,-1,-1,103,105,-1,107,109,-1,-1,-1,-1,111,-1,-1,-1,113,115,-1,117,-1,-1,-1,-1,-1,119,-1,-1,-1,121,-1,-1,-1,-1,-1,123,-1,-1,-1,125,-1,-1,-1,-1,-1,-1,-1,-1,-1,-1,-1,-1,-1,-1,-1,-1],"loss_changes":[3.5811398E10,2.762538E9,7.2425144E9,4.078756E8,8.398195E8,1.078184E9,2.4875949E8,2.771804E8,3.400208E8,3.876555E8,5.7889024E7,5.6016384E8,1.7326694E8,3.3430272E7,1.2390573E8,3.0706688E7,6.518016E7,0E0,1.8612992E7,1.3726682E8,1.5332008E8,6.621376E7,2.6306304E7,5.4732864E7,1.5732531E8,0E0,0E0,1.3332624E7,0E0,4.5323136E7,1.3891264E7,0E0,0E0,0E0,1.9276288E7,0E0,1.1451008E7,2.2492224E7,5.0184264E7,4.367925E7,1.4999284E7,1.7192064E7,3.16348E7,0E0,0E0,0E0,7.053651E7,0E0,0E0,0E0,9.85472E6,2.2071072E7,5.68504E6,0E0,6.261824E6,0E0,0E0,0E0,0E0,1.979532E6,9.904192E6,8.942608E6,7.179238E6,4.453066E6,5.866112E6,6.27997E6,3.936924E6,5.344512E6,0E0,5.8040204E7,4.008976E6,0E0,0E0,0E0,2.37541E6,2.0879956E7,0E0,3.191258E6,6.062576E6,0E0,0E0,0E0,0E0,3.090464E6,0E0,0E0,0E0,7.735846E6,8.9563944E5,0E0,1.4140666E6,0E0,0E0,0E0,0E0,0E0,1.50585E4,0E0,0E0,0E0,5.6021105E6,0E0,0E0,0E0,0E0,0E0,3.5949E6,0E0,0E0,0E0,2.21928E6,0E0,0E0,0E0,0E0,0E0,0E0,0E0,0E0,0E0,0E0,0E0,0E0,0E0,0E0,0E0,0E0],"parents":[2147483647,0,0,1,1,2,2,3,3,4,4,5,5,6,6,7,7,8,8,9,9,10,10,11,11,12,12,13,13,14,14,15,15,16,16,18,18,19,19,20,20,21,21,22,22,23,23,24,24,27,27,29,29,30,30,34,34,36,36,37,37,38,38,39,39,40,40,41,41,42,42,46,46,50,50,51,51,52,52,54,54,59,59,60,60,61,61,62,62,63,63,64,64,65,65,66,66,67,67,69,69,70,70,74,74,75,75,77,77,78,78,83,83,87,87,88,88,90,90,96,96,100,100,106,106,110,110],"right_children":[2,4,6,8,10,12,14,16,18,20,22,24,26,28,30,32,34,-1,36,38,40,42,44,46,48,-1,-1,50,-1,52,54,-1,-1,-1,56,-1,58,60,62,64,66,68,70,-1,-1,-1,72,-1,-1,-1,74,76,78,-1,80,-1,-1,-1,-1,82,84,86,88,90,92,94,96,98,-1,100,102,-1,-1,-1,104,106,-1,108,110,-1,-1,-1,-1,112,-1,-1,-1,114,116,-1,118,-1,-1,-1,-1,-1,120,-1,-1,-1,122,-1,-1,-1,-1,-1,124,-1,-1,-1,126,-1,-1,-1,-1,-1,-1,-1,-1,-1,-1,-1,-1,-1,-1,-1,-1],"split_conditions":[6.584938E-1,-3.5962024E-1,1E0,1E0,1E0,2.196006E0,1E0,-8.6867726E-1,-1.3777343E0,1.4943679E-1,1E0,1.1675508E0,-2.1308643E-1,1.1675508E0,3.8471943E-1,-4.8540738E-1,1E0,2.1688533E3,2.2874525E-1,1E0,2.2040959E-1,-1.6878018E-1,-6.0876864E-1,-9.504523E-1,1E0,7.6984795E3,3.9462778E3,-4.2391002E-1,5.8037775E2,4.914669E-1,-5.9026444E-1,-4.5098623E3,-3.2928503E3,-1.3778907E3,7.884006E-1,-1.2672252E3,1E0,1E0,3.8471943E-1,-4.244892E-1,1E0,2.196006E0,2.917685E-1,-1.024367E3,-2.5429675E3,6.2823883E1,5.5326097E-2,5.4366333E3,3.9696902E3,2.4594478E2,-4.1116792E-1,-8.3955634E-1,1.1675508E0,4.4061032E2,1.1675508E0,-3.0376562E3,-1.1164138E3,-5.850309E2,-2.5283318E3,-9.737456E-1,-3.2834437E-1,-7.722649E-1,1E0,1E0,-5.777369E-1,3.8471943E-1,3.8471943E-1,1.4943679E-1,-6.635067E2,-7.1326977E-1,1.7012234E0,2.970803E3,1.0321182E3,-1.0629677E3,-5.1750004E-1,2.2874525E-1,1.7429961E3,1.7227882E-1,4.9272186E-1,8.972061E2,2.3728215E3,-1.2130462E2,-7.367086E2,3.8471943E-1,-1.9029427E3,-4.078929E2,-1.2148816E3,-5.777369E-1,2.2874525E-1,6.144408E2,-8.400181E-1,1.5945988E3,3.3672693E2,5.1993933E2,-2.4039308E2,-8.385133E2,-4.4384295E-1,-2.3204365E3,-1.3791643E3,-1.0641669E3,-8.857229E-1,-2.0811494E3,-7.3265265E2,-3.963786E2,6.190777E1,-2.6298206E2,1.1675508E0,3.1752908E2,7.821514E2,4.2460748E2,2.8846262E0,-1.4485509E3,-7.99334E2,5.935021E2,-8.414429E1,1.2843355E1,-2.3728397E2,2.7432578E2,-3.309824E1,-9.22652E1,-3.359796E2,5.7838416E2,-1.2954965E2,3.8009122E2,1.2022301E3,1.1128828E3,6.274549E2],"split_indices":[0,0,12,8,12,1,8,0,0,0,9,0,6,0,1,7,14,0,2,8,4,7,7,3,14,0,0,6,0,3,7,0,0,0,5,0,14,14,1,6,14,1,7,0,0,0,7,0,0,0,6,4,0,0,0,0,0,0,0,1,6,4,14,14,3,1,1,0,0,3,3,0,0,0,3,2,0,5,3,0,0,0,0,1,0,0,0,3,2,0,3,0,0,0,0,0,5,0,0,0,2,0,0,0,0,0,0,0,0,0,3,0,0,0,0,0,0,0,0,0,0,0,0,0,0,0,0],"split_type":[0,0,0,0,0,0,0,0,0,0,0,0,0,0,0,0,0,0,0,0,0,0,0,0,0,0,0,0,0,0,0,0,0,0,0,0,0,0,0,0,0,0,0,0,0,0,0,0,0,0,0,0,0,0,0,0,0,0,0,0,0,0,0,0,0,0,0,0,0,0,0,0,0,0,0,0,0,0,0,0,0,0,0,0,0,0,0,0,0,0,0,0,0,0,0,0,0,0,0,0,0,0,0,0,0,0,0,0,0,0,0,0,0,0,0,0,0,0,0,0,0,0,0,0,0,0,0],"sum_hessian":[4.19E2,2.53E2,1.66E2,1.2E2,1.33E2,9.8E1,6.8E1,1.02E2,1.8E1,6.9E1,6.4E1,7.7E1,2.1E1,1E1,5.8E1,4.9E1,5.3E1,1E0,1.7E1,4.4E1,2.5E1,3.7E1,2.7E1,1.2E1,6.5E1,1.6E1,5E0,8E0,2E0,4.6E1,1.2E1,2.7E1,2.2E1,5E0,4.8E1,6E0,1.1E1,2.8E1,1.6E1,1.5E1,1E1,2.3E1,1.4E1,3E0,2.4E1,1E0,1.1E1,3.1E1,3.4E1,1E0,7E0,1.5E1,3.1E1,1E0,1.1E1,4.6E1,2E0,1E0,1E1,5E0,2.3E1,7E0,9E0,8E0,7E0,2E0,8E0,2.1E1,2E0,1E1,4E0,7E0,4E0,3E0,4E0,6E0,9E0,1E1,2.1E1,2E0,9E0,1E0,4E0,1.3E1,1E1,4E0,3E0,5E0,4E0,4E0,4E0,6E0,1E0,1E0,1E0,4E0,4E0,1.4E1,7E0,7E0,3E0,2E0,2E0,3E0,1E0,1E0,5E0,8E0,2E0,5E0,1.6E1,6E0,7E0,3E0,2E0,2E0,2E0,2E0,2E0,1E0,3E0,2E0,1E0,2E0,3E0,9E0,7E0],"tree_param":{"num_deleted":"0","num_feature":"16","num_nodes":"127","size_leaf_vector":"1"}},{"base_weights":[6.2944466E1,-5.3296133E3,8.264422E3,-7.774548E3,-3.0821006E3,1.2153897E4,2.5640952E3,-5.2847026E3,-8.726407E3,1.3290171E3,-3.8676392E3,1.0575319E4,1.7198227E4,-8.0269604E2,3.1483428E3,1.8473296E3,-5.7917295E3,-1.1733572E4,-7.6985005E3,-4.2095596E2,2.9581704E3,-2.375278E3,-4.956107E3,1.1673604E4,6.550455E3,1.6164475E3,1.8100264E4,8.821758E2,-1.891505E3,2.4949448E3,5.2684478E3,-2.4181707E3,-1.4199454E3,-3.6168115E3,-1.4918711E3,-2.3809614E3,-5.507909E3,-1.6956471E3,9.2389453E2,1.7573959E3,1.6527764E3,-3.3716455E3,-5.7217065E2,-5.4637925E3,-3.6322039E3,6.449955E3,1.2468954E4,3.796459E2,2.0078726E3,4.331072E3,7.060934E3,-2.5407805E2,4.5398663E2,-9.327431E2,-7.605492E2,3.7305742E3,1.9127756E3,5.4983335E3,3.7207028E2,-7.039419E2,-1.8645386E3,-1.03321686E2,-5.619664E2,4.6152518E2,-6.751216E1,2.1497188E3,-2.0475555E2,-3.8771348E3,-1.6490474E3,-1.6512145E3,1.1179165E3,-6.091622E3,-4.0713896E3,-3.9723418E3,-2.6726172E2,5.3510445E1,2.1129536E3,2.0266963E3,3.834436E3,-1.0396104E3,5.2730415E1,7.4433594E2,4.1662524E3,3.10448E2,2.0984373E3,3.7529175E2,5.7680415E3,7.5967377E2,3.251568E2,-3.2061157E3,-1.715439E3,-2.1573047E3,-2.4044925E2,-7.8546094E2,-9.447293E2,9.282656E2,3.8309653E2,-7.965794E2,-1.891965E3,-1.6980579E3,-2.9042214E3,-3.028527E3,-4.8915215E3,-8.517197E0,-1.1034426E2,-8.2033905E1,-3.5629233E2,5.5503076E2,-2.2399626E2,3.0496216E2,4.6909326E3,7.0652E2,1.3765051E3,7.19863E2,1.8502638E3,-1.1348268E3,-6.5286597E2,-1.395522E2,-7.297535E2,-3.111429E2,-1.0804633E2,1.7495277E2,-2.6556114E1,-1.0390326E3,-5.0995242E2,-4.689709E2,-1.638618E3,-3.020443E2,-1.5711841E3,3.1174692E2,1.4760831E3,1.21277596E2,4.646744E2],"categories":[],"categories_nodes":[],"categories_segments":[],"categories_sizes":[],"default_left":[0,0,0,0,0,0,0,0,0,0,0,0,0,0,0,0,0,0,0,0,0,0,0,0,0,0,0,0,0,0,0,0,0,0,0,0,0,0,0,0,0,0,0,0,0,0,0,0,0,0,0,0,0,0,0,0,0,0,0,0,0,0,0,0,0,0,0,0,0,0,0,0,0,0,0,0,0,0,0,0,0,0,0,0,0,0,0,0,0,0,0,0,0,0,0,0,0,0,0,0,0,0,0,0,0,0,0,0,0,0,0,0,0,0,0,0,0,0,0,0,0,0,0,0,0,0,0,0,0,0,0,0,0],"id":4,"left_children":[1,3,5,7,9,11,13,15,17,19,21,23,25,27,29,-1,31,33,35,37,39,41,43,45,47,-1,49,51,53,55,57,-1,-1,-1,-1,-1,59,61,63,65,-1,67,69,71,73,75,77,-1,-1,-1,-1,-1,-1,-1,79,81,83,85,-1,-1,-1,-1,-1,-1,-1,87,-1,89,91,93,95,97,99,101,103,-1,-1,-1,-1,105,-1,107,109,-1,111,-1,113,-1,-1,115,-1,117,-1,119,-1,-1,121,-1,-1,-1,123,125,127,-1,-1,-1,-1,-1,-1,-1,129,-1,131,-1,-1,-1,-1,-1,-1,-1,-1,-1,-1,-1,-1,-1,-1,-1,-1,-1,-1,-1,-1],"loss_changes":[1.8619361E10,1.371774E9,3.6714404E9,2.4065075E8,4.694638E8,6.064466E8,1.38253E8,2.46275E8,1.7550285E8,6.111572E7,1.7340787E8,2.6832794E8,1.3442253E8,2.184818E7,6.85865E7,0E0,4.3900544E7,9.60768E5,4.48768E6,2.0423556E7,2.4760528E7,8.789872E7,2.3842688E7,1.6885402E8,1.3521536E7,0E0,5.129216E7,6.9557585E6,7.538258E6,2.6673472E7,5.094624E6,0E0,0E0,0E0,0E0,0E0,1.4428768E7,9.53974E5,4.7263125E6,1.0128204E7,0E0,2.1470592E7,3.6495804E7,1.4537216E7,2.297376E7,4.1130304E7,4.4826624E7,0E0,0E0,0E0,0E0,0E0,0E0,0E0,1.4942425E6,1.5113456E7,3.267552E6,6.397632E6,0E0,0E0,0E0,0E0,0E0,0E0,0E0,6.65008E5,0E0,1.2187872E7,2.08405E6,1.3445896E7,1.0633612E7,1.1446272E7,1.6220608E7,1.669056E6,6.4379047E4,0E0,0E0,0E0,0E0,1.62143E5,0E0,6.4881265E6,1.4930448E7,0E0,2.26528E6,0E0,2.207744E6,0E0,0E0,4.051424E6,0E0,1.405092E6,0E0,6.17803E5,0E0,0E0,7.376737E5,0E0,0E0,0E0,2.50212E6,3.463013E7,7.233776E6,0E0,0E0,0E0,0E0,0E0,0E0,0E0,5.231008E6,0E0,1.204232E6,0E0,0E0,0E0,0E0,0E0,0E0,0E0,0E0,0E0,0E0,0E0,0E0,0E0,0E0,0E0,0E0,0E0,0E0,0E0,0E0],"parents":[2147483647,0,0,1,1,2,2,3,3,4,4,5,5,6,6,7,7,8,8,9,9,10,10,11,11,12,12,13,13,14,14,16,16,17,17,18,18,19,19,20,20,21,21,22,22,23,23,24,24,26,26,27,27,28,28,29,29,30,30,36,36,37,37,38,38,39,39,41,41,42,42,43,43,44,44,45,45,46,46,54,54,55,55,56,56,57,57,65,65,67,67,68,68,69,69,70,70,71,71,72,72,73,73,74,74,79,79,81,81,82,82,84,84,86,86,89,89,91,91,93,93,96,96,100,100,101,101,102,102,110,110,112,112],"right_children":[2,4,6,8,10,12,14,16,18,20,22,24,26,28,30,-1,32,34,36,38,40,42,44,46,48,-1,50,52,54,56,58,-1,-1,-1,-1,-1,60,62,64,66,-1,68,70,72,74,76,78,-1,-1,-1,-1,-1,-1,-1,80,82,84,86,-1,-1,-1,-1,-1,-1,-1,88,-1,90,92,94,96,98,100,102,104,-1,-1,-1,-1,106,-1,108,110,-1,112,-1,114,-1,-1,116,-1,118,-1,120,-1,-1,122,-1,-1,-1,124,126,128,-1,-1,-1,-1,-1,-1,-1,130,-1,132,-1,-1,-1,-1,-1,-1,-1,-1,-1,-1,-1,-1,-1,-1,-1,-1,-1,-1,-1,-1],"split_conditions":[6.584938E-1,-3.5962024E-1,1E0,1E0,1E0,2.196006E0,1E0,-1.3777343E0,-1.3777343E0,1.4943679E-1,1E0,9.3557036E-1,1.1675508E0,-4.2217246E-1,3.8471943E-1,1.8473296E3,-5.553121E-1,1.4946455E0,1E0,1E0,-3.7815434E-1,1E0,1.4943679E-1,3.8471943E-1,-8.857229E-1,1.6164475E3,5.8185797E0,-4.4384295E-1,-4.1116792E-1,-2.7592766E-1,1.1549501E0,-2.4181707E3,-1.4199454E3,-3.6168115E3,-1.4918711E3,-2.3809614E3,2.2874525E-1,-9.737456E-1,-5.777369E-1,-2.501991E-1,1.6527764E3,1.4943679E-1,1.4943679E-1,1E0,7.8597933E-1,-9.504523E-1,1.1675508E0,3.796459E2,2.0078726E3,4.331072E3,7.060934E3,-2.5407805E2,4.5398663E2,-9.327431E2,-5.1750004E-1,2.2874525E-1,-1.0567539E-1,-5.9026444E-1,3.7207028E2,-7.039419E2,-1.8645386E3,-1.03321686E2,-5.619664E2,4.6152518E2,-6.751216E1,7.8597933E-1,-2.0475555E2,3.168779E0,3.8471943E-1,-7.722649E-1,2.2874525E-1,-6.0876864E-1,-4.2506838E-1,1E0,-9.341382E-1,5.3510445E1,2.1129536E3,2.0266963E3,3.834436E3,-7.7476156E-1,5.2730415E1,-1.4429569E0,1.1675508E0,3.10448E2,1.7049881E0,3.7529175E2,1.1675508E0,7.5967377E2,3.251568E2,3.8471943E-1,-1.715439E3,-4.0885118E-1,-2.4044925E2,3.8471943E-1,-9.447293E2,9.282656E2,-5.777369E-1,-7.965794E2,-1.891965E3,-1.6980579E3,3.8471943E-1,4.9054466E-2,-5.9028625E-1,-8.517197E0,-1.1034426E2,-8.2033905E1,-3.5629233E2,5.5503076E2,-2.2399626E2,3.0496216E2,-9.111483E-1,7.0652E2,1.1675508E0,7.19863E2,1.8502638E3,-1.1348268E3,-6.5286597E2,-1.395522E2,-7.297535E2,-3.111429E2,-1.0804633E2,1.7495277E2,-2.6556114E1,-1.0390326E3,-5.0995242E2,-4.689709E2,-1.638618E3,-3.020443E2,-1.5711841E3,3.1174692E2,1.4760831E3,1.21277596E2,4.646744E2],"split_indices":[0,0,12,12,14,1,8,0,0,0,12,4,0,6,1,0,7,4,8,8,6,8,0,1,2,0,1,5,6,4,6,0,0,0,0,0,2,1,3,3,0,0,0,8,2,3,0,0,0,0,0,0,0,0,3,2,4,7,0,0,0,0,0,0,0,2,0,6,1,4,2,7,6,9,3,0,0,0,0,3,0,2,0,0,3,0,0,0,0,1,0,6,0,1,0,0,3,0,0,0,1,5,3,0,0,0,0,0,0,0,4,0,0,0,0,0,0,0,0,0,0,0,0,0,0,0,0,0,0,0,0,0,0],"split_type":[0,0,0,0,0,0,0,0,0,0,0,0,0,0,0,0,0,0,0,0,0,0,0,0,0,0,0,0,0,0,0,0,0,0,0,0,0,0,0,0,0,0,0,0,0,0,0,0,0,0,0,0,0,0,0,0,0,0,0,0,0,0,0,0,0,0,0,0,0,0,0,0,0,0,0,0,0,0,0,0,0,0,0,0,0,0,0,0,0,0,0,0,0,0,0,0,0,0,0,0,0,0,0,0,0,0,0,0,0,0,0,0,0,0,0,0,0,0,0,0,0,0,0,0,0,0,0,0,0,0,0,0,0],"sum_hessian":[4.19E2,2.53E2,1.66E2,1.2E2,1.33E2,9.8E1,6.8E1,3.5E1,8.5E1,2E1,1.13E2,7.7E1,2.1E1,1E1,5.8E1,1E0,3.4E1,1.9E1,6.6E1,1E1,1E1,4.9E1,6.4E1,5.9E1,1.8E1,2E0,1.9E1,4E0,6E0,4.6E1,1.2E1,8E0,2.6E1,1.7E1,2E0,5.5E1,1.1E1,5E0,5E0,8E0,2E0,3.1E1,1.8E1,4.4E1,2E1,9E0,5E1,1E0,1.7E1,1.4E1,5E0,1E0,3E0,2E0,4E0,1.3E1,3.3E1,1.1E1,1E0,3E0,8E0,1E0,4E0,3E0,2E0,7E0,1E0,2.3E1,8E0,1.1E1,7E0,2.8E1,1.6E1,1.8E1,2E0,1E0,8E0,5E0,4.5E1,3E0,1E0,2E0,1.1E1,7E0,2.6E1,1E0,1E1,4E0,3E0,1.9E1,4E0,4E0,4E0,8E0,3E0,1E0,6E0,3E0,2.5E1,5E0,1.1E1,1.1E1,7E0,1E0,1E0,1E0,2E0,1E0,1E0,2E0,9E0,1.7E1,9E0,2E0,8E0,1E1,9E0,1E0,3E0,4E0,4E0,4E0,2E0,6E0,5E0,8E0,3E0,1E0,6E0,1E0,8E0,2E0,7E0],"tree_param":{"num_deleted":"0","num_feature":"16","num_nodes":"133","size_leaf_vector":"1"}},{"base_weights":[5.6011864E1,-3.846759E3,5.9916274E3,-5.569034E3,-2.262863E3,8.786965E3,1.8940907E3,-7.6447705E3,-4.8007173E3,1.0426683E3,-2.851927E3,1.0832117E4,6.566073E3,-6.663789E2,2.339363E3,-2.326731E3,-2.3154639E2,-3.4499133E3,-5.5097964E3,-3.2080753E2,2.3113562E3,-1.7690294E3,-3.6410493E3,1.1510357E4,5.0214487E3,3.2022583E3,7.1305557E3,-1.2370977E3,3.7592334E2,1.8408892E3,3.9615874E3,1.5734705E3,-3.8760898E3,-2.243446E3,-1.4431505E3,-1.3037838E3,7.156367E2,9.693789E2,3.727853E3,-2.5161318E3,-4.1764493E2,-3.0244812E3,-4.3477827E3,1.7004434E3,1.2103704E4,3.233651E2,1.6291677E3,4.0213047E3,1.173124E3,2.4420286E3,5.858923E3,1.421824E2,-1.5116221E3,1.5942312E3,4.0939043E3,4.113574E3,3.1691235E2,-2.280199E3,-4.295567E3,-8.800486E1,-1.4458125E3,1.2104766E3,-5.4167706E1,1.3270143E3,-1.744016E2,1.2622958E3,2.3860544E2,-2.8735583E3,-1.2834241E3,-1.2753014E3,9.210454E2,-4.9655E2,-3.3072805E3,-3.7456055E3,-1.8882622E3,1.0838377E4,5.497038E3,4.5577545E1,1.4125109E3,9.148828E1,6.5495557E2,4.989382E2,1.7707262E3,-6.69488E2,-6.121711E2,1.0269269E3,1.8247423E3,2.3568338E2,1.4612911E3,3.1965607E2,4.291512E3,-1.4289682E2,-8.079796E2,-1.3338928E3,-6.235983E2,-4.760029E2,-1.1967392E2,4.1784995E2,9.1018425E1,4.566244E2,1.7806586E2,-2.3449114E3,-1.3085482E3,-1.6915422E3,-6.186211E2,-5.991536E2,-7.346505E2,7.9065393E2,2.907104E2,-9.4276514E2,6.973933E2,-3.7300544E3,-2.0842031E3,-3.9063303E3,-7.25479E0,3.7979602E3,7.6968823E3,-1.13939224E2,1.5462755E2,-8.409551E2,4.4913334E1,1.4756844E3,8.991087E1,7.863422E2,1.3438448E3,1.3255461E3,3.7046506E2,-8.289473E2,-4.78653E2,-1.1886436E2,-5.674788E2,-4.2941544E1,-2.0779951E2,-7.349111E1,-2.462686E2,1.8552101E2,9.35803E0,-1.1670459E3,-2.8911447E2,-3.5147678E2,-1.211385E3,-1.2618251E3,-5.3276526E2,3.023049E2,2.3938948E3,-6.987252E1,-2.8586697E2,1.6099924E2,5.489602E2,-1.9078973E2,4.3744025E2],"categories":[],"categories_nodes":[],"categories_segments":[],"categories_sizes":[],"default_left":[0,0,0,0,0,0,0,0,0,0,0,0,0,0,0,0,0,0,0,0,0,0,0,0,0,0,0,0,0,0,0,0,0,0,0,0,0,0,0,0,0,0,0,0,0,0,0,0,0,0,0,0,0,0,0,0,0,0,0,0,0,0,0,0,0,0,0,0,0,0,0,0,0,0,0,0,0,0,0,0,0,0,0,0,0,0,0,0,0,0,0,0,0,0,0,0,0,0,0,0,0,0,0,0,0,0,0,0,0,0,0,0,0,0,0,0,0,0,0,0,0,0,0,0,0,0,0,0,0,0,0,0,0,0,0,0,0,0,0,0,0,0,0,0,0,0,0,0,0,0,0],"id":5,"left_children":[1,3,5,7,9,11,13,15,17,19,21,23,25,27,29,-1,-1,31,33,35,37,39,41,43,45,47,49,51,-1,53,55,-1,57,-1,-1,59,61,63,65,67,69,71,73,-1,75,-1,-1,77,79,-1,81,-1,83,85,87,89,-1,91,93,-1,95,97,-1,99,-1,-1,-1,101,103,105,107,109,111,113,-1,115,-1,-1,-1,117,-1,-1,-1,-1,119,121,123,-1,-1,-1,125,-1,-1,-1,-1,-1,-1,-1,-1,-1,-1,127,-1,129,131,133,-1,-1,135,-1,-1,137,139,141,-1,-1,143,-1,-1,145,-1,147,-1,-1,149,-1,-1,-1,-1,-1,-1,-1,-1,-1,-1,-1,-1,-1,-1,-1,-1,-1,-1,-1,-1,-1,-1,-1,-1,-1,-1],"loss_changes":[9.752494E9,6.8028595E8,1.8961741E9,1.562734E8,2.6389434E8,3.7854003E8,8.022626E7,3.7014784E7,6.815398E7,3.706783E7,9.097632E7,1.3925274E8,7.210675E7,1.3711764E7,4.0416736E7,0E0,0E0,1.4745734E8,3.980352E7,1.2139837E7,1.7296264E7,4.943027E7,1.5173952E7,8.135578E7,7.032048E6,1.0240104E7,1.0805248E7,4.966249E6,0E0,1.95924E7,1.318608E6,0E0,1.2296736E7,0E0,0E0,4.2896E5,2.8883312E6,4.679932E6,4.313872E6,1.0411264E7,2.2989206E7,2.552384E7,1.0219712E7,0E0,1.1668326E8,0E0,0E0,1.6504048E7,4.27973E6,0E0,8.3552E5,0E0,3.98856E6,3.88E6,7.09688E6,1.854656E6,0E0,5.887448E6,1.682752E6,0E0,1.83839E5,2.859505E5,0E0,3.778E3,0E0,0E0,0E0,9.188112E6,1.395438E6,8.272282E6,8.027519E6,4.569708E7,9.80672E6,1.4258272E7,0E0,1.1815219E8,0E0,0E0,0E0,8.142222E5,0E0,0E0,0E0,0E0,1.00094825E6,4.423841E6,8.372904E6,0E0,0E0,0E0,4.12E5,0E0,0E0,0E0,0E0,0E0,0E0,0E0,0E0,0E0,0E0,2.074848E6,0E0,6.68096E5,9.331325E4,5.258755E5,0E0,0E0,5.8797006E5,0E0,0E0,9.790464E6,1.4944168E7,9.31024E6,0E0,0E0,3.2064E7,0E0,0E0,7.109025E4,0E0,2.149358E6,0E0,0E0,6.439148E6,0E0,0E0,0E0,0E0,0E0,0E0,0E0,0E0,0E0,0E0,0E0,0E0,0E0,0E0,0E0,0E0,0E0,0E0,0E0,0E0,0E0,0E0,0E0,0E0,0E0,0E0],"parents":[2147483647,0,0,1,1,2,2,3,3,4,4,5,5,6,6,7,7,8,8,9,9,10,10,11,11,12,12,13,13,14,14,17,17,18,18,19,19,20,20,21,21,22,22,23,23,24,24,25,25,26,26,27,27,29,29,30,30,32,32,35,35,36,36,37,37,38,38,39,39,40,40,41,41,42,42,44,44,47,47,48,48,50,50,52,52,53,53,54,54,55,55,57,57,58,58,60,60,61,61,63,63,67,67,68,68,69,69,70,70,71,71,72,72,73,73,75,75,79,79,84,84,85,85,86,86,90,90,101,101,103,103,104,104,105,105,108,108,111,111,112,112,113,113,116,116,119,119,121,121,124,124],"right_children":[2,4,6,8,10,12,14,16,18,20,22,24,26,28,30,-1,-1,32,34,36,38,40,42,44,46,48,50,52,-1,54,56,-1,58,-1,-1,60,62,64,66,68,70,72,74,-1,76,-1,-1,78,80,-1,82,-1,84,86,88,90,-1,92,94,-1,96,98,-1,100,-1,-1,-1,102,104,106,108,110,112,114,-1,116,-1,-1,-1,118,-1,-1,-1,-1,120,122,124,-1,-1,-1,126,-1,-1,-1,-1,-1,-1,-1,-1,-1,-1,128,-1,130,132,134,-1,-1,136,-1,-1,138,140,142,-1,-1,144,-1,-1,146,-1,148,-1,-1,150,-1,-1,-1,-1,-1,-1,-1,-1,-1,-1,-1,-1,-1,-1,-1,-1,-1,-1,-1,-1,-1,-1,-1,-1,-1,-1],"split_conditions":[6.584938E-1,-3.5962024E-1,1E0,-5.209239E-1,1E0,1E0,1E0,1E0,1E0,1.4943679E-1,1E0,9.3557036E-1,1.1675508E0,1.1675508E0,3.8471943E-1,-2.326731E3,-2.3154639E2,-1.3777343E0,-1.3777343E0,1E0,-4.0885118E-1,1E0,1E0,1.1675508E0,1.1675508E0,-2.501991E-1,7.8597933E-1,-4.2391002E-1,3.7592334E2,4.9266213E-1,1.1549501E0,1.5734705E3,1E0,-2.243446E3,-1.4431505E3,-9.737456E-1,-5.777369E-1,-2.501991E-1,-5.777369E-1,1.4943679E-1,1.4943679E-1,-8.857229E-1,1.5361334E0,1.7004434E3,5.8185797E0,3.233651E2,1.6291677E3,-9.504523E-1,1E0,2.4420286E3,-5.1750004E-1,1.421824E2,-4.1116792E-1,1.1675508E0,1.1675508E0,-5.9026444E-1,3.1691235E2,-4.4384295E-1,7.14466E-1,-8.800486E1,-3.945532E-1,2.2874525E-1,-5.4167706E1,7.8597933E-1,-1.744016E2,1.2622958E3,2.3860544E2,3.168779E0,3.8471943E-1,-7.722649E-1,2.2874525E-1,-2.557425E0,3.8471943E-1,-3.1733984E-1,-1.8882622E3,-4.0522256E-1,5.497038E3,4.5577545E1,1.4125109E3,3.8471943E-1,6.5495557E2,4.989382E2,1.7707262E3,-6.69488E2,-5.1750004E-1,9.3557036E-1,-2.7132884E-1,2.3568338E2,1.4612911E3,3.1965607E2,2.196006E0,-1.4289682E2,-8.079796E2,-1.3338928E3,-6.235983E2,-4.760029E2,-1.1967392E2,4.1784995E2,9.1018425E1,4.566244E2,1.7806586E2,3.8471943E-1,-1.3085482E3,-4.0885118E-1,-4.4384295E-1,2.2874525E-1,-7.346505E2,7.9065393E2,-8.400181E-1,-9.4276514E2,6.973933E2,-1.1090143E-1,4.9054466E-2,3.8471943E-1,-7.25479E0,3.7979602E3,-6.103652E-1,-1.13939224E2,1.5462755E2,-7.7476156E-1,4.4913334E1,-1.0567539E-1,8.991087E1,7.863422E2,2.2874525E-1,1.3255461E3,3.7046506E2,-8.289473E2,-4.78653E2,-1.1886436E2,-5.674788E2,-4.2941544E1,-2.0779951E2,-7.349111E1,-2.462686E2,1.8552101E2,9.35803E0,-1.1670459E3,-2.8911447E2,-3.5147678E2,-1.211385E3,-1.2618251E3,-5.3276526E2,3.023049E2,2.3938948E3,-6.987252E1,-2.8586697E2,1.6099924E2,5.489602E2,-1.9078973E2,4.3744025E2],"split_indices":[0,0,12,1,14,14,8,8,12,0,12,4,0,0,1,0,0,0,0,8,6,8,9,0,0,3,2,6,0,5,6,0,14,0,0,1,3,3,3,0,0,2,4,0,1,0,0,3,8,0,3,0,6,0,0,7,0,5,5,0,5,2,0,2,0,0,0,6,1,4,2,2,1,6,0,7,0,0,0,1,0,0,0,0,3,4,5,0,0,0,1,0,0,0,0,0,0,0,0,0,0,1,0,6,5,2,0,0,3,0,0,3,5,1,0,0,3,0,0,3,0,4,0,0,2,0,0,0,0,0,0,0,0,0,0,0,0,0,0,0,0,0,0,0,0,0,0,0,0,0,0],"split_type":[0,0,0,0,0,0,0,0,0,0,0,0,0,0,0,0,0,0,0,0,0,0,0,0,0,0,0,0,0,0,0,0,0,0,0,0,0,0,0,0,0,0,0,0,0,0,0,0,0,0,0,0,0,0,0,0,0,0,0,0,0,0,0,0,0,0,0,0,0,0,0,0,0,0,0,0,0,0,0,0,0,0,0,0,0,0,0,0,0,0,0,0,0,0,0,0,0,0,0,0,0,0,0,0,0,0,0,0,0,0,0,0,0,0,0,0,0,0,0,0,0,0,0,0,0,0,0,0,0,0,0,0,0,0,0,0,0,0,0,0,0,0,0,0,0,0,0,0,0,0,0],"sum_hessian":[4.19E2,2.53E2,1.66E2,1.2E2,1.33E2,9.8E1,6.8E1,3E1,9E1,2E1,1.13E2,4.9E1,4.9E1,1E1,5.8E1,2.9E1,1E0,3.3E1,5.7E1,1E1,1E1,4.9E1,6.4E1,4.3E1,6E0,8E0,4.1E1,8E0,2E0,4.6E1,1.2E1,1E0,3.2E1,1.1E1,4.6E1,5E0,5E0,6E0,4E0,3.1E1,1.8E1,3.7E1,2.7E1,5E0,3.8E1,1E0,5E0,5E0,3E0,1.9E1,2.2E1,1E0,7E0,4.3E1,3E0,1.1E1,1E0,8E0,2.4E1,1E0,4E0,3E0,2E0,5E0,1E0,3E0,1E0,2.3E1,8E0,1.1E1,7E0,4E0,3.3E1,2.3E1,4E0,3.4E1,4E0,1E0,4E0,2E0,1E0,1E0,2.1E1,3E0,4E0,1.4E1,2.9E1,1E0,2E0,1E0,1E1,2E0,6E0,2.1E1,3E0,3E0,1E0,2E0,1E0,3E0,2E0,1.9E1,4E0,4E0,4E0,8E0,3E0,1E0,6E0,2E0,2E0,2.3E1,1E1,2.2E1,1E0,1.9E1,1.5E1,1E0,1E0,3E0,1E0,8E0,6E0,9E0,2E1,9E0,1E0,1E1,9E0,1E0,3E0,1E0,3E0,4E0,4E0,2E0,4E0,2.1E1,2E0,8E0,2E0,1.8E1,4E0,1E0,1.4E1,1E0,2E0,3E0,5E0,1E0,1.9E1],"tree_param":{"num_deleted":"0","num_feature":"16","num_nodes":"151","size_leaf_vector":"1"}},{"base_weights":[6.6751175E1,-2.7708877E3,4.3822812E3,-3.980503E3,-1.657945E3,6.4090684E3,1.4107711E3,-5.5662603E3,-3.4201416E3,8.1601135E2,-2.0991304E3,5.3941006E3,9.716269E3,-5.1082175E2,1.7451228E3,-4.4021048E2,-1.6769012E3,-2.2417854E3,-3.9822278E3,-2.465071E2,1.8043469E3,-1.3169679E3,-2.6684995E3,4.5419844E3,7.638138E3,9.0490295E2,1.0230091E4,6.156906E2,-1.2424989E3,1.3701821E3,2.966437E3,1.3402101E3,-2.6057283E3,-1.6908617E3,-3.57475E3,-1.0311686E3,5.7923895E2,9.9496136E2,1.0765789E3,-1.8811567E3,-2.97441E2,-2.986336E3,-1.8603505E3,2.4436565E3,5.0257354E3,2.754278E2,7.942361E3,9.608265E2,1.082666E4,-1.17163E2,2.8676572E2,-6.1604407E2,-4.9283282E2,1.1632095E3,3.304337E3,5.1051434E2,9.868058E2,-2.1299849E3,-3.7072422E3,-3.0097874E3,-4.3282007E3,-7.495863E1,-1.136275E3,9.787959E2,-4.346079E1,3.6900967E2,-1.4854715E2,-2.130577E3,-1.0070187E3,-9.850511E2,7.711543E2,-5.4040886E1,-3.0459224E3,-2.160573E3,-4.6752344E2,-1.3092578E2,8.668433E2,6.4616187E3,4.5156147E3,9.99625E3,1.6425283E3,2.5481265E3,4.1091147E3,-6.805537E2,3.8255E1,1.5718993E3,9.6082886E2,2.0074422E2,1.17245E3,-9.6806085E2,-2.4635117E3,-3.306054E2,-1.161733E3,-6.6502045E2,-1.0249036E3,-4.5899326E3,-3.8990903E2,-3.701544E2,-1.0193246E2,3.352568E2,7.752514E1,-1.7150432E3,-9.981692E2,-1.3272812E3,-4.8535236E2,-5.0157617E2,-6.7252814E2,6.734429E2,2.3235658E2,-3.3806504E3,-2.0871726E3,-1.6940398E3,-1.1186787E3,5.3231445E1,-3.7810785E2,-9.704845E1,3.8820766E1,6.8708896E3,4.118541E2,3.3861367E3,5.105008E3,6.1304364E2,3.1810237E3,-5.951441E1,-2.2936208E2,4.3547266E2,1.738934E3,1.2703088E3,6.495495E2,-4.0204245E2,-1.6060579E2,-4.4182855E2,-8.0741833E2,-1.4799824E3,-7.552118E2,-6.055138E2,-3.5092807E2,-4.559987E2,-7.1823456E1,-3.6575653E1,-1.6159106E2,-2.1077592E2,-4.449558E1,1.4885097E2,7.1380463E0,-1.2227921E3,-6.8566327E2,-7.6448505E2,1.7006636E2,-2.297853E2,-6.583937E2,5.512783E1,-5.1126347E1,4.1201392E2,2.1888062E3,1.2238253E3,6.9697766E2,1.896939E3,1.1316626E3,3.5617728E2,-1.6250601E2,5.604116E2,2.0922531E2,1.9557124E2,4.756165E2,1.0488915E2,2.1015048E2],"categories":[],"categories_nodes":[],"categories_segments":[],"categories_sizes":[],"default_left":[0,0,0,0,0,0,0,0,0,0,0,0,0,0,0,0,0,0,0,0,0,0,0,0,0,0,0,0,0,0,0,0,0,0,0,0,0,0,0,0,0,0,0,0,0,0,0,0,0,0,0,0,0,0,0,0,0,0,0,0,0,0,0,0,0,0,0,0,0,0,0,0,0,0,0,0,0,0,0,0,0,0,0,0,0,0,0,0,0,0,0,0,0,0,0,0,0,0,0,0,0,0,0,0,0,0,0,0,0,0,0,0,0,0,0,0,0,0,0,0,0,0,0,0,0,0,0,0,0,0,0,0,0,0,0,0,0,0,0,0,0,0,0,0,0,0,0,0,0,0,0,0,0,0,0,0,0,0,0,0,0,0,0,0,0,0,0],"id":6,"left_children":[1,3,5,7,9,11,13,15,17,19,21,23,25,27,29,-1,-1,31,33,35,37,39,41,43,45,-1,47,49,51,53,55,-1,57,-1,59,61,63,65,-1,67,69,71,73,75,77,-1,79,-1,81,-1,-1,-1,83,85,87,-1,-1,89,91,93,95,-1,97,99,-1,-1,-1,101,103,105,107,-1,109,111,113,115,-1,117,119,121,-1,-1,-1,123,-1,125,127,-1,-1,129,131,-1,-1,-1,-1,133,-1,-1,-1,-1,-1,135,-1,137,139,141,-1,-1,143,145,147,149,-1,151,-1,-1,-1,153,-1,155,157,-1,-1,-1,-1,159,161,163,165,-1,-1,-1,-1,-1,-1,-1,-1,-1,-1,-1,-1,-1,-1,-1,-1,-1,-1,-1,-1,-1,-1,-1,-1,-1,-1,-1,-1,-1,-1,-1,-1,-1,-1,-1,-1,-1,-1],"loss_changes":[5.155428E9,3.3534336E8,9.967355E8,8.848282E7,1.4797037E8,2.7990323E8,4.5223104E7,2.56704E6,5.200781E7,2.2497408E7,4.725437E7,1.144576E8,4.411072E7,9.831672E6,2.2952752E7,0E0,0E0,9.052997E7,2.2382656E7,7.724536E6,1.265086E7,2.8200752E7,1.1140192E7,4.760781E7,3.3443584E7,0E0,4.8308224E7,2.1588015E6,3.359257E6,1.4971272E7,1.23568E5,0E0,8.348816E6,0E0,9.107904E6,2.03586E5,1.8835192E6,3.984444E6,0E0,4.831352E6,1.4720388E7,6.963616E6,7.7712E6,1.6448456E7,5.248128E6,0E0,3.837645E7,0E0,2.745472E6,0E0,0E0,0E0,6.714876E5,2.128956E6,4.154248E6,0E0,0E0,6.91596E6,6.912E3,3.557504E6,9.736544E6,0E0,1.5258E4,1.403235E5,0E0,0E0,0E0,6.552744E6,8.59432E5,6.307214E6,5.9387315E6,0E0,7.064512E6,6.396952E6,2.1710782E6,1.9714225E5,0E0,1.1216096E7,8.010624E6,3.0094016E7,0E0,0E0,0E0,2.3276125E4,0E0,1.710434E6,2.257586E6,0E0,0E0,4.233165E5,4.92232E5,0E0,0E0,0E0,0E0,2.056352E6,0E0,0E0,0E0,0E0,0E0,1.06072E6,0E0,7.7051E5,4.0744125E4,6.2908875E5,0E0,0E0,3.811045E5,1.5081344E7,1.9778812E7,5.537992E6,0E0,1.5184894E5,0E0,0E0,0E0,1.4972E7,0E0,2.581504E6,1.3886976E7,0E0,0E0,0E0,0E0,2.9181745E6,3.84788E5,1.99995E6,6.4653E4,0E0,0E0,0E0,0E0,0E0,0E0,0E0,0E0,0E0,0E0,0E0,0E0,0E0,0E0,0E0,0E0,0E0,0E0,0E0,0E0,0E0,0E0,0E0,0E0,0E0,0E0,0E0,0E0,0E0,0E0,0E0,0E0,0E0,0E0,0E0,0E0,0E0,0E0],"parents":[2147483647,0,0,1,1,2,2,3,3,4,4,5,5,6,6,7,7,8,8,9,9,10,10,11,11,12,12,13,13,14,14,17,17,18,18,19,19,20,20,21,21,22,22,23,23,24,24,26,26,27,27,28,28,29,29,30,30,32,32,34,34,35,35,36,36,37,37,39,39,40,40,41,41,42,42,43,43,44,44,46,46,48,48,52,52,53,53,54,54,57,57,58,58,59,59,60,60,62,62,63,63,67,67,68,68,69,69,70,70,72,72,73,73,74,74,75,75,77,77,78,78,79,79,83,83,85,85,86,86,89,89,90,90,95,95,101,101,103,103,104,104,105,105,108,108,109,109,110,110,111,111,113,113,117,117,119,119,120,120,125,125,126,126,127,127,128,128],"right_children":[2,4,6,8,10,12,14,16,18,20,22,24,26,28,30,-1,-1,32,34,36,38,40,42,44,46,-1,48,50,52,54,56,-1,58,-1,60,62,64,66,-1,68,70,72,74,76,78,-1,80,-1,82,-1,-1,-1,84,86,88,-1,-1,90,92,94,96,-1,98,100,-1,-1,-1,102,104,106,108,-1,110,112,114,116,-1,118,120,122,-1,-1,-1,124,-1,126,128,-1,-1,130,132,-1,-1,-1,-1,134,-1,-1,-1,-1,-1,136,-1,138,140,142,-1,-1,144,146,148,150,-1,152,-1,-1,-1,154,-1,156,158,-1,-1,-1,-1,160,162,164,166,-1,-1,-1,-1,-1,-1,-1,-1,-1,-1,-1,-1,-1,-1,-1,-1,-1,-1,-1,-1,-1,-1,-1,-1,-1,-1,-1,-1,-1,-1,-1,-1,-1,-1,-1,-1,-1,-1],"split_conditions":[6.584938E-1,-3.5962024E-1,1E0,-9.604784E-1,1E0,2.196006E0,1E0,-4.2333084E-1,1E0,1.4943679E-1,1E0,3.4225866E-2,-9.005233E-1,-4.2217246E-1,3.8471943E-1,-4.4021048E2,-1.6769012E3,-1.3777343E0,-1.3777343E0,1E0,-3.7815434E-1,1E0,1.4943679E-1,3.8471943E-1,1.1675508E0,9.0490295E2,1.1675508E0,-4.4384295E-1,-4.1116792E-1,4.9266213E-1,-4.175587E-1,1.3402101E3,-3.1733984E-1,-1.6908617E3,-3.561453E-1,-9.737456E-1,-5.777369E-1,-2.501991E-1,1.0765789E3,1.4943679E-1,1.4943679E-1,-2.557425E0,1E0,1E0,-4.792393E-1,2.754278E2,1E0,9.608265E2,5.8185797E0,-1.17163E2,2.8676572E2,-6.1604407E2,-5.1750004E-1,4.914669E-1,1.1675508E0,5.1051434E2,9.868058E2,1E0,-2.000191E0,-5.777369E-1,1E0,-7.495863E1,-3.945532E-1,2.2874525E-1,-4.346079E1,3.6900967E2,-1.4854715E2,3.168779E0,3.8471943E-1,-5.777369E-1,2.2874525E-1,-5.4040886E1,3.8471943E-1,-1.7274937E-1,4.9266213E-1,2.2874525E-1,8.668433E2,1E0,-2.7158123E-1,-6.9283074E-1,1.6425283E3,2.5481265E3,4.1091147E3,-7.7476156E-1,3.8255E1,2.2874525E-1,-3.5093263E-1,2.0074422E2,1.17245E3,-8.6867726E-1,-7.722649E-1,-3.306054E2,-1.161733E3,-6.6502045E2,-1.0249036E3,7.8597933E-1,-3.8990903E2,-3.701544E2,-1.0193246E2,3.352568E2,7.752514E1,3.8471943E-1,-9.981692E2,1.6057016E0,-4.4384295E-1,3.8471943E-1,-6.7252814E2,6.734429E2,-8.400181E-1,-4.1116792E-1,-2.7027807E-1,1E0,-1.1186787E3,7.8597933E-1,-3.7810785E2,-9.704845E1,3.8820766E1,1.1675508E0,4.118541E2,-3.8466236E-1,2.4485786E-2,6.1304364E2,3.1810237E3,-5.951441E1,-2.2936208E2,-1.4429569E0,6.7576486E-1,1.1675508E0,1.1675508E0,-4.0204245E2,-1.6060579E2,-4.4182855E2,-8.0741833E2,-1.4799824E3,-7.552118E2,-6.055138E2,-3.5092807E2,-4.559987E2,-7.1823456E1,-3.6575653E1,-1.6159106E2,-2.1077592E2,-4.449558E1,1.4885097E2,7.1380463E0,-1.2227921E3,-6.8566327E2,-7.6448505E2,1.7006636E2,-2.297853E2,-6.583937E2,5.512783E1,-5.1126347E1,4.1201392E2,2.1888062E3,1.2238253E3,6.9697766E2,1.896939E3,1.1316626E3,3.5617728E2,-1.6250601E2,5.604116E2,2.0922531E2,1.9557124E2,4.756165E2,1.0488915E2,2.1015048E2],"split_indices":[0,0,12,4,14,1,8,6,12,0,12,6,4,6,1,0,0,0,0,8,6,8,0,1,0,0,0,5,6,5,7,0,6,0,6,1,3,3,0,0,0,2,8,8,7,0,14,0,1,0,0,0,3,3,0,0,0,14,2,3,8,0,5,2,0,0,0,6,1,3,2,0,1,5,5,2,0,14,7,4,0,0,0,3,0,2,6,0,0,0,4,0,0,0,0,2,0,0,0,0,0,1,0,4,5,1,0,0,3,6,3,9,0,2,0,0,0,0,0,7,7,0,0,0,0,2,4,0,0,0,0,0,0,0,0,0,0,0,0,0,0,0,0,0,0,0,0,0,0,0,0,0,0,0,0,0,0,0,0,0,0,0,0,0,0,0,0],"split_type":[0,0,0,0,0,0,0,0,0,0,0,0,0,0,0,0,0,0,0,0,0,0,0,0,0,0,0,0,0,0,0,0,0,0,0,0,0,0,0,0,0,0,0,0,0,0,0,0,0,0,0,0,0,0,0,0,0,0,0,0,0,0,0,0,0,0,0,0,0,0,0,0,0,0,0,0,0,0,0,0,0,0,0,0,0,0,0,0,0,0,0,0,0,0,0,0,0,0,0,0,0,0,0,0,0,0,0,0,0,0,0,0,0,0,0,0,0,0,0,0,0,0,0,0,0,0,0,0,0,0,0,0,0,0,0,0,0,0,0,0,0,0,0,0,0,0,0,0,0,0,0,0,0,0,0,0,0,0,0,0,0,0,0,0,0,0,0],"sum_hessian":[4.19E2,2.53E2,1.66E2,1.2E2,1.33E2,9.8E1,6.8E1,2.9E1,9.1E1,2E1,1.13E2,7.7E1,2.1E1,1E1,5.8E1,1E0,2.8E1,3.1E1,6E1,1E1,1E1,4.9E1,6.4E1,5.8E1,1.9E1,2E0,1.9E1,4E0,6E0,4.6E1,1.2E1,1E0,3E1,9E0,5.1E1,5E0,5E0,8E0,2E0,3.1E1,1.8E1,4.4E1,2E1,1.2E1,4.6E1,1E0,1.8E1,2E0,1.7E1,1E0,3E0,2E0,4E0,4.3E1,3E0,4E0,8E0,2.3E1,7E0,3.2E1,1.9E1,1E0,4E0,3E0,2E0,7E0,1E0,2.3E1,8E0,1.1E1,7E0,1E0,4.3E1,1.6E1,4E0,2E0,1E1,9E0,3.7E1,8E0,1E1,1.2E1,5E0,3E0,1E0,1.2E1,3.1E1,1E0,2E0,6E0,1.7E1,1E0,6E0,1.4E1,1.8E1,1.7E1,2E0,3E0,1E0,2E0,1E0,1.9E1,4E0,4E0,4E0,9E0,2E0,1E0,6E0,3E1,1.3E1,1.4E1,2E0,3E0,1E0,1E0,1E0,8E0,1E0,1.5E1,2.2E1,1E0,7E0,1E0,2E0,2E0,1E1,1.4E1,1.7E1,2E0,4E0,5E0,1.2E1,1.3E1,4E0,1E1,9E0,3E0,1E0,1E0,3E0,5E0,4E0,2E0,4E0,1.6E1,1.4E1,1.1E1,2E0,6E0,8E0,2E0,1E0,1E0,7E0,7E0,8E0,9E0,1.3E1,1E0,1E0,8E0,2E0,6E0,8E0,4E0,1.3E1],"tree_param":{"num_deleted":"0","num_feature":"16","num_nodes":"167","size_leaf_vector":"1"}},{"base_weights":[7.182694E1,-2.0150286E3,3.2454165E3,-2.8836794E3,-1.2156122E3,4.741211E3,1.052242E3,-1.932642E3,-2.6708193E3,6.273722E2,-1.544446E3,3.980468E3,7.22288E3,1.9923347E2,1.5323778E3,-2.4054429E3,-3.9820115E3,-1.8957599E2,1.3872866E3,-1.9174415E3,-7.779818E2,3.3439778E3,5.6590903E3,5.7441104E3,9.571085E3,-7.9204816E2,6.838058E2,2.1947E3,9.8943555E2,-3.398564E3,-2.158106E3,-1.5720706E3,-4.359195E3,-8.166087E2,4.6905273E2,7.244605E2,8.6378094E2,-1.4071766E3,-2.2376868E3,-1.1961498E3,2.625752E2,1.7813326E3,3.7050505E3,2.3459644E2,5.873649E3,6.0941455E3,6.510695E2,6.5058344E2,3.093848E3,-2.456302E2,-1.4136631E3,9.764404E2,8.445982E1,1.5201783E3,8.6935767E2,8.298631E1,1.1450458E3,-2.87005E2,-1.0331552E3,6.7008057E2,-2.2739875E3,-1.0023487E2,-5.54652E2,-3.2406653E2,-4.514423E3,-6.384655E1,-2.6500296E2,7.9178613E2,-3.4870243E1,9.217036E2,-1.26525665E2,-9.9419324E2,-1.758023E3,-1.7737984E1,-2.285824E3,-7.169432E2,-5.8647107E2,9.208763E2,-3.3919363E2,-1.1151693E2,6.331958E2,4.363317E3,3.0558413E3,7.4540044E3,1.1998032E3,7.26038E2,6.4976465E3,-4.0078595E2,7.85924E1,-1.639632E2,-5.923349E2,4.8557733E2,3.4427908E2,-2.2236903E-1,5.8801167E1,1.6638841E2,4.9094843E2,4.1443195E2,8.3900977E2,1.141529E3,-4.9612134E2,-1.1716428E3,-2.3648872E3,-3.3281232E2,-1.3902493E3,2.6898932E2,6.60326E1,3.358745E2,1.2671242E2,-1.1205455E3,-8.9959274E1,-5.7972125E2,-6.7747266E2,-2.5974905E3,-1.6380303E3,-8.151719E2,-2.762531E2,1.2694287E3,4.4230976E1,1.8365625E1,-8.220612E2,-8.266164E1,3.306581E1,3.4953574E3,1.9099175E3,3.868613E2,9.548098E2,5.2216187E2,2.355769E3,5.0577835E2,2.0096772E3,-5.5593164E2,3.258401E1,6.810891E1,2.2370673E2,1.815754E2,3.3773456E2,-8.29062E1,-4.217239E2,-5.434716E2,-7.9488617E2,-4.2747205E2,-2.073694E2,-2.6553525E2,-9.079682E1,-4.6029522E1,-7.952492E2,-3.7090622E2,-8.97559E2,-1.16971436E2,-2.9625064E2,2.475284E1,-1.9351712E2,5.7360785E2,1.1942877E2,-2.4567917E1,3.3643353E1,-3.2205463E2,-4.3547268E1,1.3132292E3,7.112043E2,-5.0691452E1,-1.859781E2],"categories":[],"categories_nodes":[],"categories_segments":[],"categories_sizes":[],"default_left":[0,0,0,0,0,0,0,0,0,0,0,0,0,0,0,0,0,0,0,0,0,0,0,0,0,0,0,0,0,0,0,0,0,0,0,0,0,0,0,0,0,0,0,0,0,0,0,0,0,0,0,0,0,0,0,0,0,0,0,0,0,0,0,0,0,0,0,0,0,0,0,0,0,0,0,0,0,0,0,0,0,0,0,0,0,0,0,0,0,0,0,0,0,0,0,0,0,0,0,0,0,0,0,0,0,0,0,0,0,0,0,0,0,0,0,0,0,0,0,0,0,0,0,0,0,0,0,0,0,0,0,0,0,0,0,0,0,0,0,0,0,0,0,0,0,0,0,0,0,0,0,0,0,0,0,0,0,0,0,0,0,0,0],"id":7,"left_children":[1,3,5,7,9,11,13,-1,15,17,19,21,23,25,27,29,31,33,35,37,39,41,43,45,47,49,51,53,55,57,59,61,63,65,67,69,-1,71,73,75,77,79,81,-1,83,85,-1,-1,-1,87,89,91,93,95,-1,-1,97,-1,-1,99,101,-1,-1,-1,103,-1,-1,105,-1,107,-1,109,111,-1,113,-1,115,117,119,121,-1,123,125,127,-1,-1,129,131,-1,-1,-1,133,-1,-1,-1,-1,-1,-1,135,-1,-1,137,139,-1,-1,-1,-1,-1,-1,141,-1,-1,143,145,147,149,151,153,-1,155,157,-1,-1,159,-1,-1,-1,-1,-1,-1,-1,161,-1,-1,-1,-1,-1,-1,-1,-1,-1,-1,-1,-1,-1,-1,-1,-1,-1,-1,-1,-1,-1,-1,-1,-1,-1,-1,-1,-1,-1,-1,-1],"loss_changes":[2.7881252E9,1.7287565E8,5.428609E8,7.62057E7,8.217773E7,1.5815296E8,2.7954336E7,0E0,3.0784832E7,1.3300022E7,3.1099424E7,6.441344E7,2.1416576E7,1.3030645E7,1.3651008E7,1.6983488E7,9.508864E6,4.9258325E6,9.015958E6,9.270368E6,1.7284052E7,2.6689536E7,1.624128E7,6.48976E6,2.1705664E7,2.709716E6,3.074539E6,4.993632E6,2.55022E6,3.90864E5,2.8397984E7,8.41678E5,2.670752E6,8.598675E4,1.2291341E6,2.4369315E6,0E0,2.888784E6,4.580832E6,1.9441536E7,5.0660965E6,8.956244E6,6.751936E6,0E0,2.4694656E7,4.681632E6,0E0,0E0,0E0,5.816704E5,9.061825E5,5.24311E5,6.8064516E4,6.32122E5,0E0,0E0,4.51534E5,0E0,0E0,3.6250612E7,5.145216E6,0E0,0E0,0E0,3.026464E6,0E0,0E0,6.0752E4,0E0,3.50785E5,0E0,1.143802E6,2.08548E6,0E0,4.628656E6,0E0,1.193748E6,1.424483E6,1.223674E6,1.4302445E5,0E0,1.5367168E7,3.576048E6,1.118768E7,0E0,0E0,4.568448E6,4.572485E5,0E0,0E0,0E0,1.707265E5,0E0,0E0,0E0,0E0,0E0,0E0,1.184E5,0E0,0E0,1.391558E6,7.190304E6,0E0,0E0,0E0,0E0,0E0,0E0,8.85498E5,0E0,0E0,4.9628875E4,5.375872E6,5.353844E6,4.572715E5,1.4086764E6,1.52669E6,0E0,5.753909E4,3.7552438E5,0E0,0E0,6.785232E6,0E0,0E0,0E0,0E0,0E0,0E0,0E0,2.59375E3,0E0,0E0,0E0,0E0,0E0,0E0,0E0,0E0,0E0,0E0,0E0,0E0,0E0,0E0,0E0,0E0,0E0,0E0,0E0,0E0,0E0,0E0,0E0,0E0,0E0,0E0,0E0,0E0,0E0,0E0,0E0],"parents":[2147483647,0,0,1,1,2,2,3,3,4,4,5,5,6,6,8,8,9,9,10,10,11,11,12,12,13,13,14,14,15,15,16,16,17,17,18,18,19,19,20,20,21,21,22,22,23,23,24,24,25,25,26,26,27,27,28,28,29,29,30,30,31,31,32,32,33,33,34,34,35,35,37,37,38,38,39,39,40,40,41,41,42,42,44,44,45,45,49,49,50,50,51,51,52,52,53,53,56,56,59,59,60,60,64,64,67,67,69,69,71,71,72,72,74,74,76,76,77,77,78,78,79,79,81,81,82,82,83,83,86,86,87,87,91,91,98,98,101,101,102,102,109,109,112,112,113,113,114,114,115,115,116,116,117,117,119,119,120,120,123,123,131,131],"right_children":[2,4,6,8,10,12,14,-1,16,18,20,22,24,26,28,30,32,34,36,38,40,42,44,46,48,50,52,54,56,58,60,62,64,66,68,70,-1,72,74,76,78,80,82,-1,84,86,-1,-1,-1,88,90,92,94,96,-1,-1,98,-1,-1,100,102,-1,-1,-1,104,-1,-1,106,-1,108,-1,110,112,-1,114,-1,116,118,120,122,-1,124,126,128,-1,-1,130,132,-1,-1,-1,134,-1,-1,-1,-1,-1,-1,136,-1,-1,138,140,-1,-1,-1,-1,-1,-1,142,-1,-1,144,146,148,150,152,154,-1,156,158,-1,-1,160,-1,-1,-1,-1,-1,-1,-1,162,-1,-1,-1,-1,-1,-1,-1,-1,-1,-1,-1,-1,-1,-1,-1,-1,-1,-1,-1,-1,-1,-1,-1,-1,-1,-1,-1,-1,-1,-1,-1],"split_conditions":[6.584938E-1,-3.5962024E-1,1E0,-1.8867912E0,1E0,2.196006E0,1.1675508E0,-1.932642E3,1E0,1.4943679E-1,1E0,3.4225866E-2,5.8185797E0,1E0,4.914669E-1,-9.609844E-1,-6.128807E-1,1E0,-3.7815434E-1,1E0,1.4943679E-1,3.8471943E-1,1.1675508E0,2.9550317E-1,1.1675508E0,7.8597933E-1,9.3557036E-1,-1.9749188E-1,4.9272186E-1,-4.4384295E-1,-5.9026444E-1,-1.4429569E0,-4.163806E-1,-9.737456E-1,-5.777369E-1,-2.501991E-1,8.6378094E2,-3.2834437E-1,-9.690796E-1,-4.2506838E-1,-7.1326977E-1,1E0,-4.383377E-1,2.3459644E2,1E0,-9.005233E-1,6.510695E2,6.5058344E2,3.093848E3,3.8471943E-1,-3.4526345E-1,-4.3195084E-1,2.2874525E-1,-9.111483E-1,8.6935767E2,8.298631E1,1.7049881E0,-2.87005E2,-1.0331552E3,-1.3777343E0,1E0,-1.0023487E2,-5.54652E2,-3.2406653E2,1E0,-6.384655E1,-2.6500296E2,2.2874525E-1,-3.4870243E1,7.8597933E-1,-1.26525665E2,1.4943679E-1,2.196006E0,-1.7737984E1,1.4943679E-1,-7.169432E2,3.8471943E-1,1E0,1E0,2.2874525E-1,6.331958E2,-6.8650633E-1,-2.7592766E-1,-6.9283074E-1,1.1998032E3,7.26038E2,1.1675508E0,1.4946455E0,7.85924E1,-1.639632E2,-5.923349E2,3.8471943E-1,3.4427908E2,-2.2236903E-1,5.8801167E1,1.6638841E2,4.9094843E2,4.1443195E2,3.8471943E-1,1.141529E3,-4.9612134E2,3.8471943E-1,-5.777369E-1,-3.3281232E2,-1.3902493E3,2.6898932E2,6.60326E1,3.358745E2,1.2671242E2,3.8471943E-1,-8.9959274E1,-5.7972125E2,1.4943679E-1,-2.557425E0,-1.7274937E-1,-1.6878018E-1,2.2874525E-1,2.2874525E-1,4.4230976E1,3.8471943E-1,7.8597933E-1,-8.266164E1,3.306581E1,-3.6657062E-1,1.9099175E3,3.868613E2,9.548098E2,5.2216187E2,2.355769E3,5.0577835E2,2.0096772E3,-7.7476156E-1,3.258401E1,6.810891E1,2.2370673E2,1.815754E2,3.3773456E2,-8.29062E1,-4.217239E2,-5.434716E2,-7.9488617E2,-4.2747205E2,-2.073694E2,-2.6553525E2,-9.079682E1,-4.6029522E1,-7.952492E2,-3.7090622E2,-8.97559E2,-1.16971436E2,-2.9625064E2,2.475284E1,-1.9351712E2,5.7360785E2,1.1942877E2,-2.4567917E1,3.3643353E1,-3.2205463E2,-4.3547268E1,1.3132292E3,7.112043E2,-5.0691452E1,-1.859781E2],"split_indices":[0,0,12,0,14,1,0,0,10,0,8,6,1,8,3,4,7,8,6,12,0,1,0,5,0,2,4,3,3,5,7,2,6,1,3,3,0,6,4,6,3,8,4,0,14,4,0,0,0,1,5,7,2,4,0,0,3,0,0,0,14,0,0,0,14,0,0,2,0,2,0,0,1,0,0,0,1,12,12,2,0,4,4,4,0,0,0,4,0,0,0,1,0,0,0,0,0,0,1,0,0,1,3,0,0,0,0,0,0,1,0,0,0,2,5,7,2,2,0,1,2,0,0,6,0,0,0,0,0,0,0,3,0,0,0,0,0,0,0,0,0,0,0,0,0,0,0,0,0,0,0,0,0,0,0,0,0,0,0,0,0,0,0],"split_type":[0,0,0,0,0,0,0,0,0,0,0,0,0,0,0,0,0,0,0,0,0,0,0,0,0,0,0,0,0,0,0,0,0,0,0,0,0,0,0,0,0,0,0,0,0,0,0,0,0,0,0,0,0,0,0,0,0,0,0,0,0,0,0,0,0,0,0,0,0,0,0,0,0,0,0,0,0,0,0,0,0,0,0,0,0,0,0,0,0,0,0,0,0,0,0,0,0,0,0,0,0,0,0,0,0,0,0,0,0,0,0,0,0,0,0,0,0,0,0,0,0,0,0,0,0,0,0,0,0,0,0,0,0,0,0,0,0,0,0,0,0,0,0,0,0,0,0,0,0,0,0,0,0,0,0,0,0,0,0,0,0,0,0],"sum_hessian":[4.19E2,2.53E2,1.66E2,1.2E2,1.33E2,9.8E1,6.8E1,5E0,1.15E2,2E1,1.13E2,7.7E1,2.1E1,2.5E1,4.3E1,9.8E1,1.7E1,1E1,1E1,7.5E1,3.8E1,5.8E1,1.9E1,1.5E1,6E0,8E0,1.7E1,1.8E1,2.5E1,1.7E1,8.1E1,3E0,1.4E1,5E0,5E0,8E0,2E0,3.1E1,4.4E1,2.7E1,1.1E1,1.2E1,4.6E1,1E0,1.8E1,1.3E1,2E0,1E0,5E0,5E0,3E0,1.1E1,6E0,1.1E1,7E0,5E0,2E1,1E0,1.6E1,3E0,7.8E1,1E0,2E0,1E0,1.3E1,1E0,4E0,3E0,2E0,7E0,1E0,1.6E1,1.5E1,1E0,4.3E1,8E0,1.9E1,5E0,6E0,2E0,1E1,2E1,2.6E1,8E0,1E1,2E0,1.1E1,4E0,1E0,2E0,1E0,4E0,7E0,4E0,2E0,2E0,9E0,9E0,1.1E1,1E0,2E0,7E0,7.1E1,1E0,1.2E1,2E0,1E0,4E0,3E0,1.3E1,3E0,1.2E1,3E0,2.7E1,1.6E1,1E1,9E0,3E0,2E0,4E0,2E0,1E0,1E0,1.6E1,4E0,3E0,2.3E1,1E0,7E0,1E0,1E1,3E0,1E0,3E0,1E0,8E0,3E0,2E0,5E0,2.9E1,4.2E1,6E0,7E0,1E0,2E0,1E0,2.6E1,1.4E1,2E0,4E0,6E0,5E0,4E0,1E0,2E0,2E0,2E0,1E0,1E0,7E0,9E0,1E0,2E0],"tree_param":{"num_deleted":"0","num_feature":"16","num_nodes":"163","size_leaf_vector":"1"}},{"base_weights":[7.309623E1,-1.4596663E3,2.403926E3,-7.222342E2,-1.9661377E3,4.527173E3,1.4838729E3,-1.1974314E3,2.623725E2,-3.5458037E3,-1.7099586E3,4.0159878E3,7.6065337E3,7.5344556E2,2.4621853E3,-1.1387732E3,-1.0651472E3,9.7230164E2,7.7186295E1,-3.7923877E3,-2.6220724E2,-1.3807466E3,-2.1262114E3,5.1043843E3,2.7529827E3,5.5413666E2,2.4846775E3,-3.6275568E2,9.487806E2,2.2935E2,2.6513591E3,-1.3072211E3,-1.0653307E2,-4.4942212E2,1.0800869E3,-3.9208623E3,-2.3842752E2,-1.5226045E3,-1.5551541E2,-1.7184491E3,-2.530612E3,1.5625362E2,1.5679958E3,2.063487E3,1.2934878E3,-6.457014E2,1.7997067E2,1.6459315E3,7.357648E2,-2.4883333E2,1.8711118E2,3.4975613E3,1.8659128E3,-1.0128371E3,-2.0970002E3,4.7333707E2,-5.457062E2,-4.983002E2,-1.8070488E2,3.399693E2,1.763543E3,-5.6224365E2,-4.219241E3,-1.6648286E3,-5.312217E2,2.526543E2,-5.0713083E2,-8.305425E1,-1.8079846E3,-2.9192507E3,-1.2912688E3,4.8732403E1,6.420629E2,-1.0414133E3,-1.2084922E2,5.43182E2,2.2806319E2,5.9073267E2,2.1471768E3,-1.7760684E2,6.6941185E1,3.3160822E2,3.68913E3,9.1228125E2,2.504424E3,-1.3005958E3,-3.4442007E2,-2.3067764E3,-5.588958E2,-6.8200195E1,2.65817E2,-6.622651E2,-9.1833336E1,3.8706946E2,-5.9147687E2,1.5908574E2,1.5402109E2,6.9304474E2,8.922031E2,-3.3507785E2,-1.2956497E3,-1.7310115E3,-3.2206055E2,-6.10094E2,2.6481024E1,-1.5831966E2,2.93641E2,-1.8636196E3,-3.7091618E1,-3.461991E3,-1.4942688E3,8.2790234E2,-8.089347E2,-1.3370169E2,-5.0452347E2,-1.9855664E2,2.8163849E1,8.2507086E2,4.6584665E2,1.1994666E2,7.688633E2,1.2273954E3,6.894307E2,-1.2184375E2,1.0699343E3,8.380514E2,1.2948484E3,-4.2175055E2,-1.27821655E2,8.845539E-1,-1.5943962E2,-4.0031754E2,-7.7571277E2,-2.0102681E2,-4.7535435E1,-1.07768486E2,4.488457E1,-6.995475E1,-2.7366882E2,2.4765772E1,-6.560755E1,2.1582072E2,5.5057842E1,-3.155069E2,-6.5860466E1,9.5822136E1,-1.9712088E1,4.8857254E2,2.6993128E1,-1.5108355E1,-5.2201324E2,-2.2492473E2,1.4641032E2,-2.1336212E2,-8.6954834E1,-9.612538E0,-8.106432E1,-5.751222E2,-1.7272592E2,-1.1843275E3,-5.3698773E2,-5.204114E2,-1.66405E2,7.652718E2,-6.569748E2,-9.699614E1,2.7753277E1,9.3059845E1,3.8289978E2,-2.1119615E2,1.5680356E2,2.0573682E2,4.6090063E2,8.861174E1,4.3558444E2],"categories":[],"categories_nodes":[],"categories_segments":[],"categories_sizes":[],"default_left":[0,0,0,0,0,0,0,0,0,0,0,0,0,0,0,0,0,0,0,0,0,0,0,0,0,0,0,0,0,0,0,0,0,0,0,0,0,0,0,0,0,0,0,0,0,0,0,0,0,0,0,0,0,0,0,0,0,0,0,0,0,0,0,0,0,0,0,0,0,0,0,0,0,0,0,0,0,0,0,0,0,0,0,0,0,0,0,0,0,0,0,0,0,0,0,0,0,0,0,0,0,0,0,0,0,0,0,0,0,0,0,0,0,0,0,0,0,0,0,0,0,0,0,0,0,0,0,0,0,0,0,0,0,0,0,0,0,0,0,0,0,0,0,0,0,0,0,0,0,0,0,0,0,0,0,0,0,0,0,0,0,0,0,0,0,0,0,0,0,0,0,0,0,0,0],"id":8,"left_children":[1,3,5,7,9,11,13,15,17,19,21,23,25,27,29,-1,31,-1,33,35,-1,37,39,41,43,-1,-1,45,47,49,51,53,55,57,59,61,-1,63,65,67,69,-1,-1,71,-1,73,-1,75,77,79,-1,81,83,85,87,89,91,-1,93,95,97,-1,99,101,103,105,-1,-1,107,109,111,-1,-1,113,115,-1,-1,117,119,-1,-1,-1,121,123,125,127,129,131,133,135,-1,137,139,141,143,-1,145,-1,147,-1,-1,149,151,153,-1,155,-1,157,-1,159,161,163,-1,-1,-1,165,-1,167,169,-1,-1,-1,-1,-1,171,-1,173,-1,-1,-1,-1,-1,-1,-1,-1,-1,-1,-1,-1,-1,-1,-1,-1,-1,-1,-1,-1,-1,-1,-1,-1,-1,-1,-1,-1,-1,-1,-1,-1,-1,-1,-1,-1,-1,-1,-1,-1,-1,-1,-1,-1,-1,-1,-1,-1],"loss_changes":[1.5040046E9,9.344595E7,3.195168E8,4.9441812E7,5.4638464E7,4.81584E7,8.246605E7,2.0736144E7,1.930148E7,9.771488E6,1.5015904E7,4.780704E7,1.097296E7,1.5388468E7,2.0511584E7,0E0,1.5872568E7,0E0,1.8442036E7,3.757376E6,0E0,1.2972672E7,4.885632E6,1.6595712E7,1.6524352E7,0E0,0E0,3.410211E6,7.550724E6,1.1175455E6,2.4047584E7,1.0663496E7,4.0782535E6,7.3059155E6,5.470503E6,2.268352E6,0E0,8.70352E6,6.144194E6,3.48576E6,8.753552E6,0E0,0E0,3.132384E6,0E0,1.743358E6,0E0,7.11828E5,8.352494E6,6.3386425E5,0E0,5.445008E6,1.3546776E7,7.630444E6,3.227956E6,1.6654055E6,4.1530825E5,0E0,4.893459E6,1.7324812E5,9.15066E5,0E0,1.578288E6,4.685728E6,5.4392125E5,2.5822992E6,0E0,0E0,2.482056E6,9.52136E6,2.6622212E7,0E0,0E0,1.1818735E6,1.0272258E5,0E0,0E0,9.03328E5,2.05992E6,0E0,0E0,0E0,2.050176E6,2.94303E6,2.184688E6,2.459772E6,9.419099E5,2.0616E4,3.3730938E4,3.143808E5,0E0,5.6039E5,8.658326E4,4.8255688E5,1.858496E6,0E0,2.0799602E5,0E0,2.2715382E6,0E0,0E0,2.69704E6,1.7993138E6,1.0125075E5,0E0,7.807525E4,0E0,1.600936E6,0E0,4.192976E6,7.19255E5,2.7064114E7,0E0,0E0,0E0,1.808982E5,0E0,2.932331E6,2.678253E6,0E0,0E0,0E0,0E0,0E0,9.25701E5,0E0,4.288165E5,0E0,0E0,0E0,0E0,0E0,0E0,0E0,0E0,0E0,0E0,0E0,0E0,0E0,0E0,0E0,0E0,0E0,0E0,0E0,0E0,0E0,0E0,0E0,0E0,0E0,0E0,0E0,0E0,0E0,0E0,0E0,0E0,0E0,0E0,0E0,0E0,0E0,0E0,0E0,0E0,0E0,0E0,0E0,0E0,0E0,0E0,0E0,0E0],"parents":[2147483647,0,0,1,1,2,2,3,3,4,4,5,5,6,6,7,7,8,8,9,9,10,10,11,11,12,12,13,13,14,14,16,16,18,18,19,19,21,21,22,22,23,23,24,24,27,27,28,28,29,29,30,30,31,31,32,32,33,33,34,34,35,35,37,37,38,38,39,39,40,40,43,43,45,45,47,47,48,48,49,49,51,51,52,52,53,53,54,54,55,55,56,56,58,58,59,59,60,60,62,62,63,63,64,64,65,65,68,68,69,69,70,70,73,73,74,74,77,77,78,78,82,82,83,83,84,84,85,85,86,86,87,87,88,88,89,89,91,91,92,92,93,93,94,94,96,96,98,98,101,101,102,102,103,103,105,105,107,107,109,109,110,110,111,111,115,115,117,117,118,118,124,124,126,126],"right_children":[2,4,6,8,10,12,14,16,18,20,22,24,26,28,30,-1,32,-1,34,36,-1,38,40,42,44,-1,-1,46,48,50,52,54,56,58,60,62,-1,64,66,68,70,-1,-1,72,-1,74,-1,76,78,80,-1,82,84,86,88,90,92,-1,94,96,98,-1,100,102,104,106,-1,-1,108,110,112,-1,-1,114,116,-1,-1,118,120,-1,-1,-1,122,124,126,128,130,132,134,136,-1,138,140,142,144,-1,146,-1,148,-1,-1,150,152,154,-1,156,-1,158,-1,160,162,164,-1,-1,-1,166,-1,168,170,-1,-1,-1,-1,-1,172,-1,174,-1,-1,-1,-1,-1,-1,-1,-1,-1,-1,-1,-1,-1,-1,-1,-1,-1,-1,-1,-1,-1,-1,-1,-1,-1,-1,-1,-1,-1,-1,-1,-1,-1,-1,-1,-1,-1,-1,-1,-1,-1,-1,-1,-1,-1,-1,-1,-1],"split_conditions":[6.584938E-1,1E0,1E0,1E0,-1.3777343E0,5.8185797E0,3.8471943E-1,-9.466875E-1,-1.3777343E0,1.4946455E0,-3.6990833E-1,-4.0522256E-1,1.1675508E0,1E0,-4.1174713E-1,-1.1387732E3,1.4943679E-1,9.7230164E2,1.4943679E-1,2.2883226E-1,-2.6220724E2,3.8471943E-1,-3.5093263E-1,-4.1919807E-1,5.014826E-1,5.5413666E2,2.4846775E3,1.1675508E0,1E0,1E0,7.8597933E-1,4.291365E-2,1E0,-8.6867726E-1,-4.244892E-1,-6.128807E-1,-2.3842752E2,1E0,2.2874525E-1,-1.4429569E0,1E0,1.5625362E2,1.5679958E3,-9.149429E-1,1.2934878E3,-4.1116792E-1,1.7997067E2,1.7049881E0,4.9266213E-1,2.2874525E-1,1.8711118E2,-9.149429E-1,4.9272186E-1,3.8471943E-1,4.6801728E-1,-4.1174713E-1,1.6057016E0,-4.983002E2,-7.1326977E-1,1E0,1E0,-5.6224365E2,1E0,-3.1733984E-1,1.4943679E-1,-5.9028625E-1,-5.0713083E2,-8.305425E1,-1.1090143E-1,7.8597933E-1,-8.857229E-1,4.8732403E1,6.420629E2,-4.1919807E-1,2.2874525E-1,5.43182E2,2.2806319E2,-4.1919807E-1,1.1675508E0,-1.7760684E2,6.6941185E1,3.3160822E2,-1.9739424E-1,1E0,1E0,1.4946455E0,-3.5962024E-1,-3.6941785E-1,-3.5962024E-1,2.2874525E-1,2.65817E2,-4.0885118E-1,3.8471943E-1,1E0,3.8471943E-1,1.5908574E2,-8.400181E-1,6.9304474E2,2.2874525E-1,-3.3507785E2,-1.2956497E3,-4.2506838E-1,1E0,-7.722649E-1,2.6481024E1,1.4943679E-1,2.93641E2,2.196006E0,-3.7091618E1,-2.4880143E-2,-4.773422E-1,3.8471943E-1,-8.089347E2,-1.3370169E2,-5.0452347E2,-5.9028625E-1,2.8163849E1,1.1675508E0,2.2874525E-1,1.1994666E2,7.688633E2,1.2273954E3,6.894307E2,-1.2184375E2,2.196006E0,8.380514E2,-6.8650633E-1,-4.2175055E2,-1.27821655E2,8.845539E-1,-1.5943962E2,-4.0031754E2,-7.7571277E2,-2.0102681E2,-4.7535435E1,-1.07768486E2,4.488457E1,-6.995475E1,-2.7366882E2,2.4765772E1,-6.560755E1,2.1582072E2,5.5057842E1,-3.155069E2,-6.5860466E1,9.5822136E1,-1.9712088E1,4.8857254E2,2.6993128E1,-1.5108355E1,-5.2201324E2,-2.2492473E2,1.4641032E2,-2.1336212E2,-8.6954834E1,-9.612538E0,-8.106432E1,-5.751222E2,-1.7272592E2,-1.1843275E3,-5.3698773E2,-5.204114E2,-1.66405E2,7.652718E2,-6.569748E2,-9.699614E1,2.7753277E1,9.3059845E1,3.8289978E2,-2.1119615E2,1.5680356E2,2.0573682E2,4.6090063E2,8.861174E1,4.3558444E2],"split_indices":[0,12,14,8,0,1,1,3,0,4,5,7,0,8,6,0,0,0,0,6,0,1,6,5,7,0,0,0,12,8,2,6,14,0,6,7,0,8,2,2,11,0,0,4,0,6,0,3,5,2,0,4,3,1,5,6,4,0,3,14,14,0,14,6,0,3,0,0,3,2,2,0,0,5,2,0,0,5,0,0,0,0,5,8,12,4,0,3,0,2,0,6,1,14,1,0,3,0,2,0,0,6,9,4,0,0,0,1,0,5,3,1,0,0,0,3,0,0,2,0,0,0,0,0,1,0,4,0,0,0,0,0,0,0,0,0,0,0,0,0,0,0,0,0,0,0,0,0,0,0,0,0,0,0,0,0,0,0,0,0,0,0,0,0,0,0,0,0,0,0,0,0,0,0,0],"split_type":[0,0,0,0,0,0,0,0,0,0,0,0,0,0,0,0,0,0,0,0,0,0,0,0,0,0,0,0,0,0,0,0,0,0,0,0,0,0,0,0,0,0,0,0,0,0,0,0,0,0,0,0,0,0,0,0,0,0,0,0,0,0,0,0,0,0,0,0,0,0,0,0,0,0,0,0,0,0,0,0,0,0,0,0,0,0,0,0,0,0,0,0,0,0,0,0,0,0,0,0,0,0,0,0,0,0,0,0,0,0,0,0,0,0,0,0,0,0,0,0,0,0,0,0,0,0,0,0,0,0,0,0,0,0,0,0,0,0,0,0,0,0,0,0,0,0,0,0,0,0,0,0,0,0,0,0,0,0,0,0,0,0,0,0,0,0,0,0,0,0,0,0,0,0,0],"sum_hessian":[4.19E2,2.53E2,1.66E2,1.04E2,1.49E2,4.9E1,1.17E2,7E1,3.4E1,1.9E1,1.3E2,4.4E1,5E0,6.8E1,4.9E1,2E0,6.8E1,1E0,3.3E1,1.7E1,2E0,7.5E1,5.5E1,2.2E1,2.2E1,1E0,4E0,1E1,5.8E1,4E0,4.5E1,5.4E1,1.4E1,2.2E1,1.1E1,1.6E1,1E0,6.7E1,8E0,3E1,2.5E1,1E0,2.1E1,1.7E1,5E0,8E0,2E0,1.2E1,4.6E1,2E0,2E0,2E1,2.5E1,4.1E1,1.3E1,6E0,8E0,3E0,1.9E1,6E0,5E0,3E0,1.3E1,5.8E1,9E0,7E0,1E0,2E0,2.8E1,1.8E1,7E0,1E0,1.6E1,4E0,4E0,9E0,3E0,4.3E1,3E0,1E0,1E0,2E0,1.8E1,1.1E1,1.4E1,2.8E1,1.3E1,1.1E1,2E0,3E0,3E0,6E0,2E0,8E0,1.1E1,2E0,4E0,2E0,3E0,1E0,1.2E1,5.5E1,3E0,8E0,1E0,5E0,2E0,2.7E1,1E0,1.2E1,6E0,3E0,4E0,3E0,1E0,3E0,1E0,1.3E1,3E1,1E0,2E0,1.2E1,6E0,1E0,1E1,1E1,4E0,2.4E1,4E0,5E0,8E0,4E0,7E0,1E0,1E0,1E0,2E0,3E0,3E0,1E0,1E0,2E0,6E0,4E0,7E0,2E0,2E0,1E0,2E0,1E0,5.4E1,2E0,1E0,5E0,3E0,3E0,2E0,2.5E1,2E0,8E0,4E0,4E0,2E0,2E0,1E0,2E0,1E0,7E0,6E0,1E0,2.9E1,7E0,3E0,1E0,3E0],"tree_param":{"num_deleted":"0","num_feature":"16","num_nodes":"175","size_leaf_vector":"1"}},{"base_weights":[5.8690277E1,-1.0643265E3,1.7664004E3,-2.3586494E3,-8.7382135E2,3.319851E3,1.0931891E3,-2.4365066E3,8.141371E0,-1.0603762E3,-1.329389E2,2.9076934E3,5.857725E3,1.8168495E3,5.5295416E2,-2.5073894E3,-4.595974E1,-1.8435631E3,-9.3810913E2,8.5925287E2,-4.3241586E2,3.7040537E3,1.9067688E3,4.7198868E2,1.8953273E3,3.1286783E2,1.977006E3,6.544631E2,-8.772531E2,-2.2344594E2,-2.6057422E3,-9.909694E2,-2.5425266E3,-2.5386775E2,-1.1267185E3,4.2504688E2,5.5605695E2,-7.452185E2,2.5529102E2,1.5292756E3,4.34402E3,2.260937E2,2.0472981E3,-1.3457611E2,8.0972266E2,2.601841E3,1.420325E3,5.287484E2,1.377938E3,-4.297299E2,-3.7187598E2,-2.9800579E3,-1.75634E3,-1.9026611E2,-1.2367299E3,-2.7552231E3,-3.0073673E1,8.281613E2,-4.256403E2,-9.7245795E2,-1.7160967E3,5.555762E2,-9.179208E1,-5.4677795E2,-5.983773E2,7.487923E2,-2.0418025E2,4.150773E1,1.7374896E3,1.983497E2,4.520846E3,1.04635056E2,6.291041E2,2.784786E2,6.243474E1,4.3977182E2,2.7887856E3,1.1141025E3,2.2553828E3,3.597459E2,1.1325289E3,1.6563829E2,1.6944668E3,-2.8797369E1,-1.2781278E2,-2.6080615E2,-3.0518684E3,-1.9472203E3,-1.7737703E2,-6.663755E1,-1.2868449E1,-8.886944E1,-3.9029825E2,-8.650595E2,-1.6766191E2,-7.6873975E2,8.392822E0,-1.5802955E3,-8.537518E2,-1.9396997E3,-4.7846524E2,2.0581505E2,7.2179016E1,-6.0986816E2,1.247056E2,8.73882E2,1.828522E1,1.1821875E1,-4.961237E2,6.361312E2,1.8212872E2,1.3804733E3,3.4956992E2,9.4827325E2,5.35273E2,6.242013E2,2.0047333E3,1.1486519E2,7.5649756E2,3.9470557E2,-1.7988728E2,1.12899185E2,1.3408016E3,1.7653284E2,6.211943E2,-1.0214758E3,-5.92328E2,-1.6707124E2,-6.0773444E2,-7.58378E1,-3.572201E2,-4.149321E1,3.3110632E2,-1.49597225E1,-5.3717664E2,-3.0126077E2,-9.2102425E1,-6.1675397E2,-1.335131E2,-3.5407446E2,3.5349612E2,-4.8927307E1,-2.2722325E2,1.1580215E2,4.1614337E2,-1.5815997E1,2.1657818E1,-1.890519E2,-3.1593195E1,7.6851166E1,2.4867807E2,2.2915475E2,8.1102325E2,4.198048E1,1.5315099E2,4.347565E2,4.9890575E1],"categories":[],"categories_nodes":[],"categories_segments":[],"categories_sizes":[],"default_left":[0,0,0,0,0,0,0,0,0,0,0,0,0,0,0,0,0,0,0,0,0,0,0,0,0,0,0,0,0,0,0,0,0,0,0,0,0,0,0,0,0,0,0,0,0,0,0,0,0,0,0,0,0,0,0,0,0,0,0,0,0,0,0,0,0,0,0,0,0,0,0,0,0,0,0,0,0,0,0,0,0,0,0,0,0,0,0,0,0,0,0,0,0,0,0,0,0,0,0,0,0,0,0,0,0,0,0,0,0,0,0,0,0,0,0,0,0,0,0,0,0,0,0,0,0,0,0,0,0,0,0,0,0,0,0,0,0,0,0,0,0,0,0,0,0,0,0,0,0,0,0,0,0,0,0,0,0],"id":9,"left_children":[1,3,5,7,9,11,13,15,-1,17,19,21,23,25,27,29,-1,31,33,35,37,39,41,-1,-1,43,45,47,49,-1,51,53,55,57,59,61,-1,63,65,67,69,-1,71,-1,73,75,77,79,81,-1,83,85,87,89,91,93,-1,-1,95,97,99,101,-1,103,-1,105,107,-1,109,-1,111,-1,-1,-1,-1,-1,113,115,117,119,121,-1,123,-1,-1,-1,125,127,-1,-1,-1,-1,-1,-1,-1,129,131,133,135,137,139,-1,-1,141,-1,143,-1,145,147,-1,-1,-1,-1,-1,-1,149,151,-1,-1,153,-1,-1,155,-1,-1,-1,-1,-1,-1,-1,-1,-1,-1,-1,-1,-1,-1,-1,-1,-1,-1,-1,-1,-1,-1,-1,-1,-1,-1,-1,-1,-1,-1,-1,-1,-1,-1],"loss_changes":[8.0735066E8,6.0569056E7,1.7101942E8,6.011696E6,3.0681056E7,3.5267776E7,4.512707E7,4.624624E6,0E0,1.531544E7,1.4039928E7,2.8806592E7,3.511344E6,1.1425072E7,1.0591472E7,3.210848E6,0E0,1.1186864E7,1.9846448E7,4.056487E6,7.934443E6,2.6759584E7,1.976288E6,0E0,0E0,2.653346E6,1.1957072E7,5.183256E6,9.0671175E5,0E0,3.668448E6,2.126067E6,5.95108E6,1.9507984E7,9.423136E6,1.0350319E6,0E0,5.211728E6,2.8738848E6,1.781629E6,8.6728E6,0E0,1.650448E6,0E0,1.126255E5,4.5824E4,4.135828E6,5.408883E6,1.387294E6,0E0,2.3198875E4,3.0448E4,1.266692E6,1.0504828E4,2.77175E5,2.262472E6,0E0,0E0,5.069613E6,5.794072E6,5.71364E6,1.7708025E5,0E0,1.6602565E6,0E0,4.6181625E5,4.47288E5,0E0,1.43191E6,0E0,2.189888E6,0E0,0E0,0E0,0E0,0E0,6.69736E5,7.911384E6,2.330272E6,1.793689E6,1.368262E6,0E0,1.394772E6,0E0,0E0,0E0,1.65552E5,1.21828E5,0E0,0E0,0E0,0E0,0E0,0E0,0E0,3.941955E6,2.7868948E6,5.220464E6,7.178336E6,3.247592E6,7.402904E6,0E0,0E0,1.405182E6,0E0,7.3178625E5,0E0,2.3845422E4,9.743369E4,0E0,0E0,0E0,0E0,0E0,0E0,9.57167E5,4.186304E6,0E0,0E0,1.3146165E6,0E0,0E0,1.077982E6,0E0,0E0,0E0,0E0,0E0,0E0,0E0,0E0,0E0,0E0,0E0,0E0,0E0,0E0,0E0,0E0,0E0,0E0,0E0,0E0,0E0,0E0,0E0,0E0,0E0,0E0,0E0,0E0,0E0,0E0,0E0,0E0,0E0,0E0],"parents":[2147483647,0,0,1,1,2,2,3,3,4,4,5,5,6,6,7,7,9,9,10,10,11,11,12,12,13,13,14,14,15,15,17,17,18,18,19,19,20,20,21,21,22,22,25,25,26,26,27,27,28,28,30,30,31,31,32,32,33,33,34,34,35,35,37,37,38,38,39,39,40,40,42,42,44,44,45,45,46,46,47,47,48,48,50,50,51,51,52,52,53,53,54,54,55,55,58,58,59,59,60,60,61,61,63,63,65,65,66,66,68,68,70,70,76,76,77,77,78,78,79,79,80,80,82,82,86,86,87,87,95,95,96,96,97,97,98,98,99,99,100,100,103,103,105,105,107,107,108,108,115,115,116,116,119,119,122,122],"right_children":[2,4,6,8,10,12,14,16,-1,18,20,22,24,26,28,30,-1,32,34,36,38,40,42,-1,-1,44,46,48,50,-1,52,54,56,58,60,62,-1,64,66,68,70,-1,72,-1,74,76,78,80,82,-1,84,86,88,90,92,94,-1,-1,96,98,100,102,-1,104,-1,106,108,-1,110,-1,112,-1,-1,-1,-1,-1,114,116,118,120,122,-1,124,-1,-1,-1,126,128,-1,-1,-1,-1,-1,-1,-1,130,132,134,136,138,140,-1,-1,142,-1,144,-1,146,148,-1,-1,-1,-1,-1,-1,150,152,-1,-1,154,-1,-1,156,-1,-1,-1,-1,-1,-1,-1,-1,-1,-1,-1,-1,-1,-1,-1,-1,-1,-1,-1,-1,-1,-1,-1,-1,-1,-1,-1,-1,-1,-1,-1,-1,-1,-1],"split_conditions":[6.584938E-1,-5.209239E-1,1E0,-3.5962024E-1,1.4943679E-1,5.8185797E0,1E0,1E0,8.141371E0,-9.569368E-1,1E0,-2.9717758E-1,1.1675508E0,-4.1174713E-1,1E0,-4.163806E-1,-4.595974E1,-6.0876864E-1,-6.618175E-1,-3.7815434E-1,1E0,-1.7274937E-1,-2.7592766E-1,4.7198868E2,1.8953273E3,1E0,7.8597933E-1,7.824398E-2,-8.877056E-1,-2.2344594E2,7.8597933E-1,-3.2848883E-1,1.4763395E-1,-1.3777343E0,-3.1733984E-1,-2.501991E-1,5.5605695E2,-1.7274937E-1,-7.1326977E-1,-9.149429E-1,1.1675508E0,2.260937E2,-8.857229E-1,-1.3457611E2,1.1675508E0,3.8471943E-1,2.196006E0,3.8471943E-1,1.1675508E0,-4.297299E2,-7.7476156E-1,1E0,7.884006E-1,-1.4429569E0,-9.466875E-1,-5.758723E-1,-3.0073673E1,8.281613E2,3.8471943E-1,-4.2391002E-1,1E0,7.8597933E-1,-9.179208E1,7.8597933E-1,-5.983773E2,2.196006E0,1E0,4.150773E1,-5.1750004E-1,1.983497E2,2.0218971E-1,1.04635056E2,6.291041E2,2.784786E2,6.243474E1,4.3977182E2,-1.9739424E-1,1.7227882E-1,-5.1750004E-1,5.6234922E-2,-3.4526345E-1,1.6563829E2,-1.9749188E-1,-2.8797369E1,-1.2781278E2,-2.6080615E2,1E0,-4.4384295E-1,-1.7737703E2,-6.663755E1,-1.2868449E1,-8.886944E1,-3.9029825E2,-8.650595E2,-1.6766191E2,-4.4384295E-1,-7.722649E-1,1E0,3.8471943E-1,-1.552644E-2,1E0,2.0581505E2,7.2179016E1,1E0,1.247056E2,3.8471943E-1,1.828522E1,3.8471943E-1,7.8597933E-1,6.361312E2,1.8212872E2,1.3804733E3,3.4956992E2,9.4827325E2,5.35273E2,-2.8391734E-1,3.8471943E-1,1.1486519E2,7.5649756E2,1.1675508E0,-1.7988728E2,1.12899185E2,2.196006E0,1.7653284E2,6.211943E2,-1.0214758E3,-5.92328E2,-1.6707124E2,-6.0773444E2,-7.58378E1,-3.572201E2,-4.149321E1,3.3110632E2,-1.49597225E1,-5.3717664E2,-3.0126077E2,-9.2102425E1,-6.1675397E2,-1.335131E2,-3.5407446E2,3.5349612E2,-4.8927307E1,-2.2722325E2,1.1580215E2,4.1614337E2,-1.5815997E1,2.1657818E1,-1.890519E2,-3.1593195E1,7.6851166E1,2.4867807E2,2.2915475E2,8.1102325E2,4.198048E1,1.5315099E2,4.347565E2,4.9890575E1],"split_indices":[0,1,14,0,0,1,12,8,0,4,14,4,0,6,11,6,0,7,3,6,8,5,4,0,0,8,2,6,3,0,2,2,5,0,6,3,0,5,3,4,0,0,2,0,0,1,1,1,0,0,3,12,5,2,3,7,0,0,1,6,11,2,0,2,0,1,12,0,3,0,6,0,0,0,0,0,5,5,3,6,5,0,3,0,0,0,11,5,0,0,0,0,0,0,0,5,4,14,1,3,12,0,0,9,0,1,0,1,2,0,0,0,0,0,0,7,1,0,0,0,0,0,1,0,0,0,0,0,0,0,0,0,0,0,0,0,0,0,0,0,0,0,0,0,0,0,0,0,0,0,0,0,0,0,0,0,0],"split_type":[0,0,0,0,0,0,0,0,0,0,0,0,0,0,0,0,0,0,0,0,0,0,0,0,0,0,0,0,0,0,0,0,0,0,0,0,0,0,0,0,0,0,0,0,0,0,0,0,0,0,0,0,0,0,0,0,0,0,0,0,0,0,0,0,0,0,0,0,0,0,0,0,0,0,0,0,0,0,0,0,0,0,0,0,0,0,0,0,0,0,0,0,0,0,0,0,0,0,0,0,0,0,0,0,0,0,0,0,0,0,0,0,0,0,0,0,0,0,0,0,0,0,0,0,0,0,0,0,0,0,0,0,0,0,0,0,0,0,0,0,0,0,0,0,0,0,0,0,0,0,0,0,0,0,0,0,0],"sum_hessian":[4.19E2,2.53E2,1.66E2,3.1E1,2.22E2,4.9E1,1.17E2,3E1,1E0,1.77E2,4.5E1,4.4E1,5E0,4.9E1,6.8E1,2.9E1,1E0,2.2E1,1.55E2,1E1,3.5E1,2.3E1,2.1E1,1E0,4E0,5E0,4.4E1,6.4E1,4E0,2E0,2.7E1,1.1E1,1.1E1,3.4E1,1.21E2,8E0,2E0,2.4E1,1.1E1,6E0,1.7E1,3E0,1.8E1,2E0,3E0,1.9E1,2.5E1,5.6E1,8E0,1E0,3E0,1.7E1,1E1,3E0,8E0,1E1,1E0,1E0,3.3E1,9.8E1,2.3E1,7E0,1E0,2.2E1,2E0,5E0,6E0,1E0,5E0,1E0,1.6E1,1E0,1.7E1,2E0,1E0,4E0,1.5E1,2E1,5E0,4.5E1,1.1E1,3E0,5E0,1E0,2E0,1E0,1.6E1,8E0,2E0,2E0,1E0,1E0,7E0,9E0,1E0,1.8E1,1.5E1,1.4E1,8.4E1,1.9E1,4E0,4E0,3E0,2.1E1,1E0,4E0,1E0,4E0,2E0,3E0,2E0,1.5E1,1E0,9E0,6E0,1.4E1,6E0,1E0,4E0,4.4E1,1E0,3E0,8E0,2E0,3E0,1E1,6E0,1E0,7E0,9E0,9E0,1.4E1,1E0,2E0,1.2E1,6.4E1,2E1,1.7E1,2E0,3E0,1E0,6E0,1.5E1,3E0,1E0,2E0,2E0,1E0,1E0,6E0,8E0,3E0,3E0,1.5E1,2.9E1,7E0,1E0],"tree_param":{"num_deleted":"0","num_feature":"16","num_nodes":"157","size_leaf_vector":"1"}},{"base_weights":[5.5761543E1,-7.699957E2,1.3113699E3,-1.7558304E3,-6.2507776E2,1.9309845E3,4.0335217E2,-8.1575665E2,-1.5153489E3,-2.947122E2,-8.961615E2,1.5335062E3,3.2524534E3,4.846679E2,-7.3442267E2,-1.7615535E3,-7.998552E2,-5.7283295E2,2.5405704E2,-1.4009209E3,-7.5825183E2,1.3083318E3,2.9338594E3,3.6167642E3,4.975623E2,3.643268E2,9.858138E2,-3.6602405E2,-3.007705E2,-1.7927933E2,-1.8565037E3,-9.056843E2,6.934555E0,-7.208946E2,-1.6221354E0,7.053893E2,1.2158123E2,-6.53351E2,-1.714286E3,-4.0287833E2,-9.963908E2,1.4652277E3,8.1833057E2,1.0914417E3,4.3000195E2,1.3913046E3,2.1391128E3,2.567627E2,7.614627E2,6.8302814E2,4.9410242E2,-2.4528347E1,-1.0254919E2,-5.6459625E2,-1.5487888E2,-2.9570474E2,-3.9146214E1,-4.7903082E2,-1.1412211E3,1.9502995E2,-1.7527805E2,-3.415251E2,2.8197763E2,-1.5373096E2,-8.7753925E2,-1.854907E3,-1.3038315E2,-5.1096497E2,1.9510881E2,-1.0995956E3,8.131608E1,7.146091E2,1.6537826E3,4.5209015E2,6.943715E2,3.9295117E2,8.375906E2,1.8854765E2,4.6983905E2,7.9853645E1,9.1234717E2,2.9647852E2,8.063382E2,-6.4059546E2,-1.7938672E2,-1.4465607E3,-5.4055884E2,-1.04350784E2,3.5776416E2,1.324795E1,7.063623E2,-6.3184364E1,-1.865043E1,-7.569494E1,-2.819421E2,-2.65704E2,-2.1220735E3,-6.241167E2,3.0801619E1,-8.94375E1,2.8202127E2,-8.9944446E2,-6.778941E2,5.8390594E2,-1.355062E3,1.25957E1,7.718494E2,2.0685754E3,1.2572585E3,-1.2283789E2,8.660026E2,-1.0561238E2,3.466143E2,2.2301413E2,7.156841E1,1.139554E3,1.1867152E2,-1.5321979E2,7.398216E2,4.3443262E2,2.895717E2,-2.2306284E2,-2.60459E1,6.580791E0,-1.6208444E2,-4.93419E2,-7.0845E1,-2.0091795E2,-6.9395355E1,-7.328719E1,2.1721903E1,5.6913536E1,1.6903752E2,1.14390915E2,-7.9246666E1,5.90997E1,3.4991196E2,-6.706536E2,-1.0721054E2,4.5699154E1,-1.9491864E2,-1.0708331E2,1.997812E2,1.7517352E0,-5.5370663E1,-3.4800412E2,-2.0419977E2,-5.0295108E2,-4.91036E1,1.0702065E2,2.8317374E2,1.0609087E2,6.369123E2,6.346551E2,3.017512E2,8.912308E1,-1.0797599E2,3.3266406E2,1.8554587E2,-7.151447E1,1.3361334E1,2.3838075E2,5.18549E1,1.3076495E2,4.323495E2,2.6422885E2,6.479799E1,1.8458424E2,4.868492E1],"categories":[],"categories_nodes":[],"categories_segments":[],"categories_sizes":[],"default_left":[0,0,0,0,0,0,0,0,0,0,0,0,0,0,0,0,0,0,0,0,0,0,0,0,0,0,0,0,0,0,0,0,0,0,0,0,0,0,0,0,0,0,0,0,0,0,0,0,0,0,0,0,0,0,0,0,0,0,0,0,0,0,0,0,0,0,0,0,0,0,0,0,0,0,0,0,0,0,0,0,0,0,0,0,0,0,0,0,0,0,0,0,0,0,0,0,0,0,0,0,0,0,0,0,0,0,0,0,0,0,0,0,0,0,0,0,0,0,0,0,0,0,0,0,0,0,0,0,0,0,0,0,0,0,0,0,0,0,0,0,0,0,0,0,0,0,0,0,0,0,0,0,0,0,0,0,0,0,0,0,0,0,0,0,0,0,0,0,0],"id":10,"left_children":[1,3,5,7,9,11,13,-1,15,17,19,21,23,25,27,29,31,33,35,37,39,41,43,45,-1,47,49,-1,51,-1,53,55,-1,57,59,-1,61,63,65,67,69,71,73,-1,-1,-1,75,77,79,81,-1,-1,-1,-1,-1,-1,-1,83,85,87,-1,-1,89,91,93,95,-1,97,99,101,103,105,107,-1,109,-1,-1,111,113,-1,115,117,119,121,123,125,127,129,131,133,135,-1,-1,-1,-1,-1,137,139,141,143,-1,145,-1,-1,147,-1,149,151,153,155,157,159,161,-1,-1,163,-1,-1,165,167,-1,-1,-1,-1,-1,-1,-1,-1,-1,-1,-1,-1,-1,-1,-1,-1,-1,-1,-1,-1,-1,-1,-1,-1,-1,-1,-1,-1,-1,-1,-1,-1,-1,-1,-1,-1,-1,-1,-1,-1,-1,-1,-1,-1,-1,-1,-1,-1,-1],"loss_changes":[4.364774E8,3.519021E7,9.317885E7,3.491744E6,1.970704E7,4.7012576E7,6.739762E6,0E0,3.523428E6,1.5713191E7,7.43032E6,2.07568E7,6.54816E6,3.56089E6,7.13026E5,1.07436E6,8.05291E5,5.749892E6,9.563911E6,4.736524E6,7.892144E6,4.105616E6,5.748192E6,1.6986E7,0E0,2.111234E6,1.334941E6,0E0,1.07249375E4,0E0,1.51976E5,4.35625E5,0E0,4.943052E6,1.854342E6,0E0,7.2696325E6,8.731755E5,2.231144E6,2.749704E6,6.540432E6,6.03636E6,6.05108E5,0E0,0E0,0E0,1.279384E6,5.5095325E5,5.710895E5,2.375925E5,0E0,0E0,0E0,0E0,0E0,0E0,0E0,1.6279135E6,2.702762E6,6.219669E5,0E0,0E0,3.5260295E6,8.1664844E3,3.12125E4,1.940472E6,0E0,2.164789E6,1.5910599E6,1.053296E7,1.894049E7,4.28883E5,3.978288E6,0E0,2.631033E6,0E0,0E0,1.6639981E6,4.634495E5,0E0,4.74703E5,1.8245235E6,1.9111E4,1.354543E6,1.0486735E6,2.756098E6,1.77546E5,1.4495231E5,1.7224956E5,2.193434E6,2.6476065E6,0E0,0E0,0E0,0E0,0E0,1.891044E6,8.52871E5,2.0076546E6,5.6774832E4,0E0,1.908256E6,0E0,0E0,1.342785E6,0E0,4.83429E5,1.682032E6,2.6875E6,5.1823197E5,2.20201E5,2.76463E5,1.665867E6,0E0,0E0,4.69817E5,0E0,0E0,4.19355E4,1.0112444E5,0E0,0E0,0E0,0E0,0E0,0E0,0E0,0E0,0E0,0E0,0E0,0E0,0E0,0E0,0E0,0E0,0E0,0E0,0E0,0E0,0E0,0E0,0E0,0E0,0E0,0E0,0E0,0E0,0E0,0E0,0E0,0E0,0E0,0E0,0E0,0E0,0E0,0E0,0E0,0E0,0E0,0E0,0E0,0E0,0E0,0E0,0E0,0E0,0E0],"parents":[2147483647,0,0,1,1,2,2,3,3,4,4,5,5,6,6,8,8,9,9,10,10,11,11,12,12,13,13,14,14,15,15,16,16,17,17,18,18,19,19,20,20,21,21,22,22,23,23,25,25,26,26,28,28,30,30,31,31,33,33,34,34,36,36,37,37,38,38,39,39,40,40,41,41,42,42,46,46,47,47,48,48,49,49,57,57,58,58,59,59,62,62,63,63,64,64,65,65,67,67,68,68,69,69,70,70,71,71,72,72,74,74,77,77,78,78,80,80,81,81,82,82,83,83,84,84,85,85,86,86,87,87,88,88,89,89,90,90,96,96,97,97,98,98,99,99,101,101,104,104,106,106,107,107,108,108,109,109,110,110,111,111,112,112,115,115,118,118,119,119],"right_children":[2,4,6,8,10,12,14,-1,16,18,20,22,24,26,28,30,32,34,36,38,40,42,44,46,-1,48,50,-1,52,-1,54,56,-1,58,60,-1,62,64,66,68,70,72,74,-1,-1,-1,76,78,80,82,-1,-1,-1,-1,-1,-1,-1,84,86,88,-1,-1,90,92,94,96,-1,98,100,102,104,106,108,-1,110,-1,-1,112,114,-1,116,118,120,122,124,126,128,130,132,134,136,-1,-1,-1,-1,-1,138,140,142,144,-1,146,-1,-1,148,-1,150,152,154,156,158,160,162,-1,-1,164,-1,-1,166,168,-1,-1,-1,-1,-1,-1,-1,-1,-1,-1,-1,-1,-1,-1,-1,-1,-1,-1,-1,-1,-1,-1,-1,-1,-1,-1,-1,-1,-1,-1,-1,-1,-1,-1,-1,-1,-1,-1,-1,-1,-1,-1,-1,-1,-1,-1,-1,-1,-1],"split_conditions":[6.584938E-1,-5.209239E-1,1E0,-1.8867912E0,1E0,2.196006E0,1E0,-8.1575665E2,-3.2298175E-1,1E0,-5.6353617E-1,1.8974198E0,-2.1308643E-1,3.4225866E-2,-8.877056E-1,-4.163806E-1,-3.5962024E-1,1.4943679E-1,-1.3777343E0,-6.0876864E-1,-5.777369E-1,9.3557036E-1,1E0,-2.7592766E-1,4.975623E2,3.8471943E-1,2.5428438E-1,-3.6602405E2,-7.7476156E-1,-1.7927933E2,7.9180074E-1,1E0,6.934555E0,-4.1919807E-1,-2.501991E-1,7.053893E2,-8.6867726E-1,-3.2848883E-1,2.196006E0,3.8471943E-1,1E0,-8.620711E-1,-4.4384295E-1,1.0914417E3,4.3000195E2,1.3913046E3,5.8185797E0,1.7227882E-1,1.1675508E0,1.3139887E-1,4.9410242E2,-2.4528347E1,-1.0254919E2,-5.6459625E2,-1.5487888E2,-2.9570474E2,-3.9146214E1,3.8471943E-1,7.8597933E-1,-8.857229E-1,-1.7527805E2,-3.415251E2,1.4943679E-1,-3.5962024E-1,-9.466875E-1,-3.2848883E-1,-1.3038315E2,1E0,2.2874525E-1,1.7086517E0,-2.7027807E-1,-9.504523E-1,4.13661E-1,4.5209015E2,1E0,3.9295117E2,8.375906E2,1.1675508E0,1.1675508E0,7.9853645E1,1.7049881E0,3.8471943E-1,1.1675508E0,1.4946455E0,1.4946455E0,4.6801728E-1,-3.5962024E-1,-6.5679777E-1,-4.0885118E-1,-7.1326977E-1,-4.244892E-1,-6.3184364E1,-1.865043E1,-7.569494E1,-2.819421E2,-2.65704E2,-4.7106752E-1,-8.6867726E-1,1.4943679E-1,1.4943679E-1,2.8202127E2,-2.501991E-1,-6.778941E2,5.8390594E2,1.7012234E0,1.25957E1,1E0,-5.738163E-1,-5.285838E-1,-8.857229E-1,1E0,-4.1174713E-1,-4.0885118E-1,2.2301413E2,7.156841E1,-5.1750004E-1,1.1867152E2,-1.5321979E2,2.2874525E-1,8.612322E-2,2.895717E2,-2.2306284E2,-2.60459E1,6.580791E0,-1.6208444E2,-4.93419E2,-7.0845E1,-2.0091795E2,-6.9395355E1,-7.328719E1,2.1721903E1,5.6913536E1,1.6903752E2,1.14390915E2,-7.9246666E1,5.90997E1,3.4991196E2,-6.706536E2,-1.0721054E2,4.5699154E1,-1.9491864E2,-1.0708331E2,1.997812E2,1.7517352E0,-5.5370663E1,-3.4800412E2,-2.0419977E2,-5.0295108E2,-4.91036E1,1.0702065E2,2.8317374E2,1.0609087E2,6.369123E2,6.346551E2,3.017512E2,8.912308E1,-1.0797599E2,3.3266406E2,1.8554587E2,-7.151447E1,1.3361334E1,2.3838075E2,5.18549E1,1.3076495E2,4.323495E2,2.6422885E2,6.479799E1,1.8458424E2,4.868492E1],"split_indices":[0,1,12,0,12,1,11,0,7,8,7,5,6,6,3,6,0,0,0,7,3,4,14,4,0,1,3,0,3,0,6,8,0,5,3,0,0,2,1,1,11,4,5,0,0,0,1,5,0,7,0,0,0,0,0,0,0,1,2,2,0,0,0,0,3,2,0,9,2,6,3,3,3,0,8,0,0,0,0,0,3,1,0,4,4,5,0,3,6,3,6,0,0,0,0,0,3,0,0,0,0,3,0,0,3,0,14,7,7,2,14,6,6,0,0,3,0,0,2,3,0,0,0,0,0,0,0,0,0,0,0,0,0,0,0,0,0,0,0,0,0,0,0,0,0,0,0,0,0,0,0,0,0,0,0,0,0,0,0,0,0,0,0,0,0,0,0,0,0],"split_type":[0,0,0,0,0,0,0,0,0,0,0,0,0,0,0,0,0,0,0,0,0,0,0,0,0,0,0,0,0,0,0,0,0,0,0,0,0,0,0,0,0,0,0,0,0,0,0,0,0,0,0,0,0,0,0,0,0,0,0,0,0,0,0,0,0,0,0,0,0,0,0,0,0,0,0,0,0,0,0,0,0,0,0,0,0,0,0,0,0,0,0,0,0,0,0,0,0,0,0,0,0,0,0,0,0,0,0,0,0,0,0,0,0,0,0,0,0,0,0,0,0,0,0,0,0,0,0,0,0,0,0,0,0,0,0,0,0,0,0,0,0,0,0,0,0,0,0,0,0,0,0,0,0,0,0,0,0,0,0,0,0,0,0,0,0,0,0,0,0],"sum_hessian":[4.19E2,2.53E2,1.66E2,3.1E1,2.22E2,9.8E1,6.8E1,4E0,2.7E1,1.01E2,1.21E2,7.7E1,2.1E1,6.4E1,4E0,1.9E1,8E0,6.7E1,3.4E1,2.4E1,9.7E1,6.8E1,9E0,1.6E1,5E0,5.3E1,1.1E1,1E0,3E0,2E0,1.7E1,7E0,1E0,5.3E1,1.4E1,1E0,3.3E1,8E0,1.6E1,4E1,5.7E1,5E1,1.8E1,5E0,4E0,8E0,8E0,4.3E1,1E1,9E0,2E0,1E0,2E0,1.6E1,1E0,6E0,1E0,3.5E1,1.8E1,1.1E1,3E0,3E0,3E1,3E0,5E0,1.4E1,2E0,3.4E1,6E0,5.2E1,5E0,1.1E1,3.9E1,1E0,1.7E1,5E0,3E0,3.4E1,9E0,3E0,7E0,3E0,6E0,2.2E1,1.3E1,1.1E1,7E0,4E0,7E0,1.9E1,1.1E1,1E0,2E0,1E0,4E0,4E0,1E1,2.8E1,6E0,5E0,1E0,4.6E1,6E0,2E0,3E0,1E0,1E1,1.7E1,2.2E1,3E0,1.4E1,1.2E1,2.2E1,3E0,6E0,4E0,3E0,1E0,2E0,3E0,3E0,1.8E1,4E0,9E0,4E0,9E0,2E0,4E0,3E0,2E0,2E0,5E0,2E0,8E0,1.1E1,6E0,5E0,9E0,1E0,1E0,2.7E1,4E0,2E0,3E0,2E0,1.8E1,2.8E1,2E0,1E0,4E0,6E0,1E0,1.6E1,3E0,1.9E1,1E0,2E0,5E0,9E0,6E0,6E0,5E0,1.7E1,2E0,2E0,1E0,1E0,1E0,2E0],"tree_param":{"num_deleted":"0","num_feature":"16","num_nodes":"169","size_leaf_vector":"1"}},{"base_weights":[5.005744E1,-5.618332E2,9.8041766E2,-7.171753E2,-5.14829E2,1.8563452E3,6.009533E2,-6.6251794E2,-9.52896E1,1.5905182E3,3.5406575E3,3.006346E2,1.00337396E3,-1.6882565E3,-6.124138E2,6.0081793E2,-1.5910703E2,8.130349E2,1.9914387E3,2.7784778E2,1.148593E3,-2.5939383E2,3.999512E2,-4.607656E1,1.0956322E3,-6.3298E2,-7.078916E2,-5.244789E2,-1.00964044E3,5.9292615E2,-3.0662082E2,4.5682358E2,5.4703906E2,1.4927593E3,2.6717542E3,-6.77105E1,-7.479792E2,3.3437253E2,1.0413265E3,3.6996647E1,-2.0157552E2,6.107383E2,1.4451376E3,-2.3686336E2,-6.447341E1,-1.0139434E3,-4.6533264E2,-1.3489492E3,-3.599891E2,8.1763837E2,1.5974374E2,-8.162649E1,-7.6457434E2,1.8636198E2,2.1546323E2,1.1158098E3,1.9795569E3,2.0332753E2,8.3070374E2,-1.839135E2,6.70072E1,-2.0892265E1,-3.1176254E2,7.7680524E2,2.643439E2,1.1813741E2,3.9643765E2,-1.1532035E2,2.567204E1,9.368459E2,2.2910902E2,2.2052969E3,9.847726E2,-6.076787E2,-1.3914347E3,-5.2768994E2,-2.126467E2,-2.6069205E2,-1.4553838E3,-4.2618484E2,5.4578857E1,-4.6528404E1,1.0062214E3,3.6613677E0,7.527655E1,-2.0033739E2,3.8858154E2,-5.7265356E2,-4.5460934E2,9.03629E1,3.0160652E1,-1.1682617E2,1.4972832E3,8.476771E2,1.7943791E2,-2.3191797E2,1.543438E1,9.579212E2,-4.5940052E1,-1.3050572E2,2.881913E2,6.50939E1,2.925253E2,-5.294043E1,7.3593066E2,2.438058E3,9.2708856E2,8.06624E2,4.7635617E2,-2.0417006E2,5.9066772E0,-4.9263727E2,-1.4155295E2,-1.1382142E2,-1.860416E2,9.648176E1,-9.3656425E1,-1.3844354E2,2.2503862E1,-2.8012997E2,-5.0237592E2,-1.7696129E2,-3.024711E1,1.6476851E2,3.7698193E2,-1.9078154E2,-2.0235233E1,2.1268486E2,-3.5433403E1,3.6528458E1,-2.2020842E2,-9.176429E1,6.837037E1,5.565086E2,2.2005476E2,-2.6004822E0,-1.0119238E2,-1.7151949E1,3.4768E2,1.3230009E1,1.041026E2,-5.5564655E1,6.92722E1,3.648744E1,3.81664E2,1.1852038E2,8.0383545E2,8.242247E1,3.298891E2,3.5642743E2,1.0834468E2],"categories":[],"categories_nodes":[],"categories_segments":[],"categories_sizes":[],"default_left":[0,0,0,0,0,0,0,0,0,0,0,0,0,0,0,0,0,0,0,0,0,0,0,0,0,0,0,0,0,0,0,0,0,0,0,0,0,0,0,0,0,0,0,0,0,0,0,0,0,0,0,0,0,0,0,0,0,0,0,0,0,0,0,0,0,0,0,0,0,0,0,0,0,0,0,0,0,0,0,0,0,0,0,0,0,0,0,0,0,0,0,0,0,0,0,0,0,0,0,0,0,0,0,0,0,0,0,0,0,0,0,0,0,0,0,0,0,0,0,0,0,0,0,0,0,0,0,0,0,0,0,0,0,0,0,0,0,0,0,0,0,0,0,0,0,0,0,0,0,0,0],"id":11,"left_children":[1,3,5,-1,7,9,11,13,15,17,19,21,23,25,27,-1,29,31,33,-1,-1,35,37,39,41,-1,43,45,47,49,51,-1,53,55,57,59,61,63,65,-1,67,69,71,-1,-1,73,75,77,79,81,83,85,87,89,-1,91,93,-1,-1,95,-1,-1,-1,97,99,-1,-1,-1,-1,101,103,105,107,109,111,113,115,117,119,121,-1,-1,123,-1,-1,125,127,129,-1,-1,-1,131,133,-1,-1,135,-1,137,-1,-1,139,-1,-1,141,143,145,147,149,-1,-1,-1,-1,-1,-1,-1,-1,-1,-1,-1,-1,-1,-1,-1,-1,-1,-1,-1,-1,-1,-1,-1,-1,-1,-1,-1,-1,-1,-1,-1,-1,-1,-1,-1,-1,-1,-1,-1,-1,-1,-1,-1],"loss_changes":[2.3964787E8,2.092596E7,5.439243E7,0E0,1.5365248E7,1.6755312E7,1.3959176E7,8.422528E6,9.258962E6,1.2407792E7,1.575976E6,3.9415325E6,4.891508E6,1.99169E6,5.653096E6,0E0,7.392595E6,2.447873E6,5.850232E6,0E0,0E0,9.795442E5,2.133381E6,1.579939E5,6.91316E6,0E0,4.787375E3,3.783824E6,6.347796E6,9.4014275E5,5.6046235E6,0E0,7.7180525E5,1.277656E6,9.18992E5,3.4873484E5,5.42833E5,1.498719E6,4.179425E5,0E0,1.9565919E5,2.3988555E6,6.927E6,0E0,0E0,1.454875E6,1.983444E6,1.937156E6,5.1063525E5,1.444415E6,6.6248516E4,2.1989625E6,1.777551E6,2.9128844E4,0E0,6.287755E6,6.730582E6,0E0,0E0,9.13662E4,0E0,0E0,0E0,1.3297095E6,9.500885E5,0E0,0E0,0E0,0E0,1.76132E5,1.6113969E6,4.1736E5,6.98174E5,4.7090225E5,9.34966E5,1.280094E6,1.6580908E6,2.437038E5,5.95716E5,5.47678E5,0E0,0E0,1.03775E4,0E0,0E0,1.7705691E6,1.4220301E6,1.98489E6,0E0,0E0,0E0,3.391279E5,1.47394E6,0E0,0E0,1.4345469E5,0E0,1.3764995E6,0E0,0E0,7.1998625E5,0E0,0E0,3.5206856E5,1.1931638E6,2.812824E6,5.2018E4,2.352808E6,0E0,0E0,0E0,0E0,0E0,0E0,0E0,0E0,0E0,0E0,0E0,0E0,0E0,0E0,0E0,0E0,0E0,0E0,0E0,0E0,0E0,0E0,0E0,0E0,0E0,0E0,0E0,0E0,0E0,0E0,0E0,0E0,0E0,0E0,0E0,0E0,0E0,0E0,0E0,0E0,0E0,0E0,0E0],"parents":[2147483647,0,0,1,1,2,2,4,4,5,5,6,6,7,7,8,8,9,9,10,10,11,11,12,12,13,13,14,14,16,16,17,17,18,18,21,21,22,22,23,23,24,24,26,26,27,27,28,28,29,29,30,30,32,32,33,33,34,34,35,35,36,36,37,37,38,38,40,40,41,41,42,42,45,45,46,46,47,47,48,48,49,49,50,50,51,51,52,52,53,53,55,55,56,56,59,59,63,63,64,64,69,69,70,70,71,71,72,72,73,73,74,74,75,75,76,76,77,77,78,78,79,79,82,82,85,85,86,86,87,87,91,91,92,92,95,95,97,97,100,100,103,103,104,104,105,105,106,106,107,107],"right_children":[2,4,6,-1,8,10,12,14,16,18,20,22,24,26,28,-1,30,32,34,-1,-1,36,38,40,42,-1,44,46,48,50,52,-1,54,56,58,60,62,64,66,-1,68,70,72,-1,-1,74,76,78,80,82,84,86,88,90,-1,92,94,-1,-1,96,-1,-1,-1,98,100,-1,-1,-1,-1,102,104,106,108,110,112,114,116,118,120,122,-1,-1,124,-1,-1,126,128,130,-1,-1,-1,132,134,-1,-1,136,-1,138,-1,-1,140,-1,-1,142,144,146,148,150,-1,-1,-1,-1,-1,-1,-1,-1,-1,-1,-1,-1,-1,-1,-1,-1,-1,-1,-1,-1,-1,-1,-1,-1,-1,-1,-1,-1,-1,-1,-1,-1,-1,-1,-1,-1,-1,-1,-1,-1,-1,-1,-1],"split_conditions":[6.584938E-1,-1.8867912E0,1E0,-7.171753E2,1E0,5.8185797E0,3.8471943E-1,-9.466875E-1,-1.3777343E0,-3.3297786E-1,1.1675508E0,1E0,-4.1174713E-1,-4.1406387E-1,-9.8814756E-2,6.0081793E2,1E0,-7.1326977E-1,2.7085832E-1,2.7784778E2,1.148593E3,-3.4526345E-1,4.9266213E-1,-5.1373523E-1,-3.2503775E-1,-6.3298E2,-1.3777343E0,-5.209239E-1,7.8597933E-1,-5.777369E-1,-5.777369E-1,4.5682358E2,-2.7158123E-1,2.196006E0,3.7350312E-1,1.1675508E0,2.2874525E-1,-8.479045E-1,1.1675508E0,3.6996647E1,1.1675508E0,7.8597933E-1,-2.623172E-1,-2.3686336E2,-6.447341E1,-3.6309552E-1,1.4943679E-1,1E0,1.4943679E-1,-3.5962024E-1,1.4943679E-1,1.4943679E-1,3.8471943E-1,1.1675508E0,2.1546323E2,-6.8650633E-1,-8.959698E-1,2.0332753E2,8.3070374E2,1.4946455E0,6.70072E1,-2.0892265E1,-3.1176254E2,7.8597933E-1,-8.3955634E-1,1.1813741E2,3.9643765E2,-1.1532035E2,2.567204E1,1.1675508E0,2.196006E0,2.196006E0,2.196006E0,-3.5962024E-1,-1.8818145E-1,-4.4384295E-1,-9.015099E-1,-8.6867726E-1,-7.032303E-1,1E0,5.4578857E1,-4.6528404E1,1.4943679E-1,3.6613677E0,7.527655E1,-7.609573E-1,7.8597933E-1,-8.6867726E-1,-4.5460934E2,9.03629E1,3.0160652E1,7.8597933E-1,9.3557036E-1,8.476771E2,1.7943791E2,1E0,1.543438E1,1.1675508E0,-4.5940052E1,-1.3050572E2,-3.8466236E-1,6.50939E1,2.925253E2,-4.3195084E-1,-5.1750004E-1,-2.7158123E-1,5.8185797E0,5.793123E-1,4.7635617E2,-2.0417006E2,5.9066772E0,-4.9263727E2,-1.4155295E2,-1.1382142E2,-1.860416E2,9.648176E1,-9.3656425E1,-1.3844354E2,2.2503862E1,-2.8012997E2,-5.0237592E2,-1.7696129E2,-3.024711E1,1.6476851E2,3.7698193E2,-1.9078154E2,-2.0235233E1,2.1268486E2,-3.5433403E1,3.6528458E1,-2.2020842E2,-9.176429E1,6.837037E1,5.565086E2,2.2005476E2,-2.6004822E0,-1.0119238E2,-1.7151949E1,3.4768E2,1.3230009E1,1.041026E2,-5.5564655E1,6.92722E1,3.648744E1,3.81664E2,1.1852038E2,8.0383545E2,8.242247E1,3.298891E2,3.5642743E2,1.0834468E2],"split_indices":[0,0,14,0,8,1,1,3,0,6,0,8,6,6,5,0,14,3,5,0,0,5,5,3,7,0,0,1,2,3,3,0,7,1,3,0,2,4,0,0,0,2,6,0,0,6,0,14,0,0,0,0,1,0,0,4,4,0,0,4,0,0,0,2,4,0,0,0,0,0,1,1,1,0,6,5,3,0,3,9,0,0,0,0,0,3,2,0,0,0,0,2,4,0,0,12,0,0,0,0,7,0,0,7,3,7,1,3,0,0,0,0,0,0,0,0,0,0,0,0,0,0,0,0,0,0,0,0,0,0,0,0,0,0,0,0,0,0,0,0,0,0,0,0,0,0,0,0,0,0,0],"split_type":[0,0,0,0,0,0,0,0,0,0,0,0,0,0,0,0,0,0,0,0,0,0,0,0,0,0,0,0,0,0,0,0,0,0,0,0,0,0,0,0,0,0,0,0,0,0,0,0,0,0,0,0,0,0,0,0,0,0,0,0,0,0,0,0,0,0,0,0,0,0,0,0,0,0,0,0,0,0,0,0,0,0,0,0,0,0,0,0,0,0,0,0,0,0,0,0,0,0,0,0,0,0,0,0,0,0,0,0,0,0,0,0,0,0,0,0,0,0,0,0,0,0,0,0,0,0,0,0,0,0,0,0,0,0,0,0,0,0,0,0,0,0,0,0,0,0,0,0,0,0,0],"sum_hessian":[4.19E2,2.53E2,1.66E2,5E0,2.48E2,4.9E1,1.17E2,1.83E2,6.5E1,4.4E1,5E0,6.8E1,4.9E1,7E0,1.76E2,1E0,6.4E1,1.6E1,2.8E1,1E0,4E0,1E1,5.8E1,4E0,4.5E1,4E0,3E0,1.46E2,3E1,1E1,5.4E1,3E0,1.3E1,1.8E1,1E1,8E0,2E0,5.4E1,4E0,2E0,2E0,2E1,2.5E1,2E0,1E0,1.4E1,1.32E2,1.9E1,1.1E1,6E0,4E0,3.7E1,1.7E1,5E0,8E0,1.2E1,6E0,1E0,9E0,6E0,2E0,1E0,1E0,6E0,4.8E1,2E0,2E0,1E0,1E0,1E1,1E1,8E0,1.7E1,8E0,6E0,1.05E2,2.7E1,2E0,1.7E1,1E1,1E0,1E0,5E0,2E0,2E0,3E1,7E0,1.5E1,2E0,1E0,4E0,3E0,9E0,3E0,3E0,5E0,1E0,5E0,1E0,1E0,4.7E1,1E0,9E0,7E0,3E0,6E0,2E0,1.5E1,2E0,7E0,1E0,4E0,2E0,4.5E1,6E1,4E0,2.3E1,1E0,1E0,7E0,1E1,6E0,4E0,3E0,2E0,6E0,2.4E1,4E0,3E0,3E0,1.2E1,2E0,1E0,5E0,4E0,2E0,3E0,1E0,4E0,1E1,3.7E1,5E0,2E0,2E0,1E0,1E0,5E0,1E0,1E0,7E0,8E0],"tree_param":{"num_deleted":"0","num_feature":"16","num_nodes":"151","size_leaf_vector":"1"}},{"base_weights":[4.747547E1,-4.0836102E2,7.404994E2,-1.8212223E3,-3.7267618E2,5.5958984E2,1.8488207E3,-2.7482004E2,-7.135291E2,-4.8301532E2,-5.9417377E1,2.1775996E2,8.5863745E2,5.573281E2,2.0146781E3,-1.3044915E3,-4.4315756E2,5.1174875E2,-1.13439545E2,-2.1466832E2,2.9469135E2,7.256064E2,1.6773851E3,2.5246992E1,2.0349315E2,4.1167447E2,2.169919E3,-4.8284113E2,-1.6999127E2,-2.494454E2,-5.6171704E2,-2.665614E2,3.7215625E2,-5.0007378E1,-6.3709503E2,2.4016925E2,8.354961E2,2.1185336E2,8.319132E2,6.1652356E2,2.5483444E2,1.6442105E2,1.8666258E1,7.9360864E2,4.0493994E2,-2.5426196E2,-1.9882915E2,-4.81826E2,-8.557486E2,-4.9505066E1,-6.181004E2,7.343156E2,1.9024348E2,-1.4200725E2,1.8132812E2,-1.7795313E1,-2.655451E2,5.16084E2,1.5946138E2,9.478596E1,3.180773E2,5.63925E2,-7.28125E0,1.2023107E3,5.927394E2,-3.2253314E2,-2.3844099E1,-6.052759E2,-2.5773447E2,-1.0816075E3,-3.2529456E2,-1.5654346E2,1.8199286E1,2.9378965E0,-6.925668E2,6.039713E1,3.0246744E2,4.3717578E2,-1.2955144E2,-2.240166E2,-2.4496094E1,1.626421E1,6.437931E1,6.9676337E2,6.5013985E1,1.2994011E2,1.5405888E2,2.756797E2,2.5452452E2,-7.362577E1,9.70625E1,1.3670492E3,1.1911197E2,4.1422888E2,1.0154437E3,1.8151901E1,-1.2657502E2,5.6442764E1,-9.645628E1,-1.4417532E2,-4.4946497E2,-1.2935918E2,4.961331E2,-3.5301572E2,-1.8542953E2,-1.5419237E2,-3.0961702E1,8.665072E1,-1.1070851E1,-1.0321664E2,-2.2882352E2,1.6223766E2,3.204855E1,-1.5376819E1,-7.679086E1,-1.4243779E1,-7.9063E1,-1.8448137E1,1.3146411E1,7.800212E1,2.4241747E2,-1.11159035E2,4.4888264E1,1.5016858E1,9.89712E1,5.4038956E1,-6.1392963E1,1.21809006E2,4.5737076E2,2.1598393E2,3.3881935E1,1.9964511E2,4.71183E2],"categories":[],"categories_nodes":[],"categories_segments":[],"categories_sizes":[],"default_left":[0,0,0,0,0,0,0,0,0,0,0,0,0,0,0,0,0,0,0,0,0,0,0,0,0,0,0,0,0,0,0,0,0,0,0,0,0,0,0,0,0,0,0,0,0,0,0,0,0,0,0,0,0,0,0,0,0,0,0,0,0,0,0,0,0,0,0,0,0,0,0,0,0,0,0,0,0,0,0,0,0,0,0,0,0,0,0,0,0,0,0,0,0,0,0,0,0,0,0,0,0,0,0,0,0,0,0,0,0,0,0,0,0,0,0,0,0,0,0,0,0,0,0,0,0,0,0,0,0,0,0,0,0],"id":12,"left_children":[1,3,5,7,9,11,13,-1,-1,15,17,19,21,23,25,27,29,-1,31,33,35,37,39,-1,-1,41,43,-1,-1,45,47,49,51,53,55,57,59,61,63,-1,-1,-1,-1,-1,-1,-1,65,67,69,71,73,75,77,79,81,-1,-1,83,85,-1,-1,87,89,91,93,95,97,99,101,103,105,-1,107,-1,109,-1,-1,111,113,115,117,-1,-1,119,-1,121,-1,123,-1,-1,125,127,-1,129,131,-1,-1,-1,-1,-1,-1,-1,-1,-1,-1,-1,-1,-1,-1,-1,-1,-1,-1,-1,-1,-1,-1,-1,-1,-1,-1,-1,-1,-1,-1,-1,-1,-1,-1,-1,-1,-1,-1],"loss_changes":[1.32982744E8,1.212738E7,3.2449904E7,9.10262E5,8.577912E6,1.4635424E7,3.803848E6,0E0,0E0,5.446472E6,6.5616795E6,2.3587052E6,7.169636E6,1.8521438E5,4.083728E6,9.6157E5,3.924936E6,0E0,4.932299E6,7.332696E5,1.539002E6,3.537604E6,1.500732E6,0E0,0E0,1.14561375E5,3.679224E6,0E0,0E0,1.9533705E6,2.148144E6,3.7845895E6,9.1440375E5,2.1729545E5,3.9381562E5,1.1424712E6,2.69052E5,1.00707006E6,4.248352E6,0E0,0E0,0E0,0E0,0E0,0E0,0E0,1.3993222E6,2.278438E6,2.28393E6,1.0462553E6,8.95408E5,5.50531E5,1.00424925E6,6.1971562E4,1.6752891E3,0E0,0E0,4.9073775E5,4.0028662E5,0E0,0E0,1.8782362E5,2.5046356E5,2.220398E6,2.295832E6,1.5482135E6,1.8702006E6,5.331802E6,1.2109206E7,1.47E3,2.89824E5,0E0,4.523101E5,0E0,1.95098E5,0E0,0E0,1.94281E5,4.690714E4,1.7207125E4,1.3146301E4,0E0,0E0,1.5178625E5,0E0,5.1174888E5,0E0,3.541528E4,0E0,0E0,2.1911803E5,2.220052E6,0E0,2.4616625E6,8.92622E5,0E0,0E0,0E0,0E0,0E0,0E0,0E0,0E0,0E0,0E0,0E0,0E0,0E0,0E0,0E0,0E0,0E0,0E0,0E0,0E0,0E0,0E0,0E0,0E0,0E0,0E0,0E0,0E0,0E0,0E0,0E0,0E0,0E0,0E0,0E0,0E0,0E0,0E0],"parents":[2147483647,0,0,1,1,2,2,3,3,4,4,5,5,6,6,9,9,10,10,11,11,12,12,13,13,14,14,15,15,16,16,18,18,19,19,20,20,21,21,22,22,25,25,26,26,29,29,30,30,31,31,32,32,33,33,34,34,35,35,36,36,37,37,38,38,46,46,47,47,48,48,49,49,50,50,51,51,52,52,53,53,54,54,57,57,58,58,61,61,62,62,63,63,64,64,65,65,66,66,67,67,68,68,69,69,70,70,72,72,74,74,77,77,78,78,79,79,80,80,83,83,85,85,87,87,90,90,91,91,93,93,94,94],"right_children":[2,4,6,8,10,12,14,-1,-1,16,18,20,22,24,26,28,30,-1,32,34,36,38,40,-1,-1,42,44,-1,-1,46,48,50,52,54,56,58,60,62,64,-1,-1,-1,-1,-1,-1,-1,66,68,70,72,74,76,78,80,82,-1,-1,84,86,-1,-1,88,90,92,94,96,98,100,102,104,106,-1,108,-1,110,-1,-1,112,114,116,118,-1,-1,120,-1,122,-1,124,-1,-1,126,128,-1,130,132,-1,-1,-1,-1,-1,-1,-1,-1,-1,-1,-1,-1,-1,-1,-1,-1,-1,-1,-1,-1,-1,-1,-1,-1,-1,-1,-1,-1,-1,-1,-1,-1,-1,-1,-1,-1,-1,-1],"split_conditions":[6.584938E-1,-1.8867912E0,2.196006E0,2.2874525E-1,1E0,3.8471943E-1,1.1675508E0,-2.7482004E2,-7.135291E2,-9.466875E-1,-1.3777343E0,1E0,1.8974198E0,-8.620711E-1,-9.005233E-1,-4.1406387E-1,1E0,5.1174875E2,1.4943679E-1,-3.4526345E-1,4.9266213E-1,-8.620711E-1,1E0,2.5246992E1,2.0349315E2,1E0,-2.7592766E-1,-4.8284113E2,-1.6999127E2,-8.6867726E-1,-9.8814756E-2,-7.0472056E-1,1E0,1.1675508E0,2.2874525E-1,1E0,1.1675508E0,-9.149429E-1,3.7350312E-1,6.1652356E2,2.5483444E2,1.6442105E2,1.8666258E1,7.9360864E2,4.0493994E2,-2.5426196E2,3.8471943E-1,1E0,7.8597933E-1,-8.6867726E-1,1E0,7.8597933E-1,4.9266213E-1,-4.1174713E-1,7.8597933E-1,-1.7795313E1,-2.655451E2,9.2065436E-1,9.681994E-1,9.478596E1,3.180773E2,7.8597933E-1,1E0,1.1549501E0,1.7227882E-1,1E0,1.4946455E0,1.5361334E0,-1.9739424E-1,2.2874525E-1,-5.758723E-1,-1.5654346E2,1E0,2.9378965E0,-8.6867726E-1,6.039713E1,3.0246744E2,7.8597933E-1,1E0,1E0,-5.9028625E-1,1.626421E1,6.437931E1,-1.4429569E0,6.5013985E1,-7.7476156E-1,1.5405888E2,1E0,2.5452452E2,-7.362577E1,1E0,-4.204349E-1,1.1911197E2,1E0,1E0,1.8151901E1,-1.2657502E2,5.6442764E1,-9.645628E1,-1.4417532E2,-4.4946497E2,-1.2935918E2,4.961331E2,-3.5301572E2,-1.8542953E2,-1.5419237E2,-3.0961702E1,8.665072E1,-1.1070851E1,-1.0321664E2,-2.2882352E2,1.6223766E2,3.204855E1,-1.5376819E1,-7.679086E1,-1.4243779E1,-7.9063E1,-1.8448137E1,1.3146411E1,7.800212E1,2.4241747E2,-1.11159035E2,4.4888264E1,1.5016858E1,9.89712E1,5.4038956E1,-6.1392963E1,1.21809006E2,4.5737076E2,2.1598393E2,3.3881935E1,1.9964511E2,4.71183E2],"split_indices":[0,0,1,2,8,1,0,0,0,3,0,8,5,4,4,6,12,0,0,5,5,4,14,0,0,14,4,0,0,0,5,4,14,0,2,12,0,4,3,0,0,0,0,0,0,0,1,11,2,0,14,2,5,6,2,0,0,3,7,0,0,2,14,6,5,14,4,4,5,2,7,0,14,0,0,0,0,2,12,12,3,0,0,2,0,3,0,14,0,0,11,6,0,14,14,0,0,0,0,0,0,0,0,0,0,0,0,0,0,0,0,0,0,0,0,0,0,0,0,0,0,0,0,0,0,0,0,0,0,0,0,0,0],"split_type":[0,0,0,0,0,0,0,0,0,0,0,0,0,0,0,0,0,0,0,0,0,0,0,0,0,0,0,0,0,0,0,0,0,0,0,0,0,0,0,0,0,0,0,0,0,0,0,0,0,0,0,0,0,0,0,0,0,0,0,0,0,0,0,0,0,0,0,0,0,0,0,0,0,0,0,0,0,0,0,0,0,0,0,0,0,0,0,0,0,0,0,0,0,0,0,0,0,0,0,0,0,0,0,0,0,0,0,0,0,0,0,0,0,0,0,0,0,0,0,0,0,0,0,0,0,0,0,0,0,0,0,0,0],"sum_hessian":[4.19E2,2.53E2,1.66E2,5E0,2.48E2,1.44E2,2.2E1,3E0,2E0,1.83E2,6.5E1,6.8E1,7.6E1,3E0,1.9E1,7E0,1.76E2,1E0,6.4E1,1E1,5.8E1,6.7E1,9E0,1E0,2E0,2E0,1.7E1,4E0,3E0,6.8E1,1.08E2,4.9E1,1.5E1,8E0,2E0,5.4E1,4E0,1.2E1,5.5E1,5E0,4E0,1E0,1E0,9E0,8E0,4E0,6.4E1,8.7E1,2.1E1,3.1E1,1.8E1,4E0,1.1E1,6E0,2E0,1E0,1E0,1.1E1,4.3E1,2E0,2E0,4E0,8E0,2E1,3.5E1,3.7E1,2.7E1,5.5E1,3.2E1,1.4E1,7E0,3E0,2.8E1,2E0,1.6E1,2E0,2E0,6E0,5E0,3E0,3E0,1E0,1E0,6E0,5E0,4.1E1,2E0,3E0,1E0,2E0,6E0,1.6E1,4E0,2.6E1,9E0,8E0,2.9E1,1.6E1,1.1E1,5E1,5E0,3E1,2E0,1E1,4E0,3E0,4E0,4E0,2.4E1,4E0,1.2E1,4E0,2E0,4E0,1E0,1E0,2E0,2E0,1E0,2E0,4E0,